{"learner":{"attributes":{"scikit_learn":"{\"_estimator_type\": \"regressor\"}"},"feature_names":["precipitation","temp_min","wind"],"feature_types":["float","float","float"],"gradient_booster":{"model":{"gbtree_model_param":{"num_parallel_tree":"1","num_trees":"100"},"iteration_indptr":[0,1,2,3,4,5,6,7,8,9,10,11,12,13,14,15,16,17,18,19,20,21,22,23,24,25,26,27,28,29,30,31,32,33,34,35,36,37,38,39,40,41,42,43,44,45,46,47,48,49,50,51,52,53,54,55,56,57,58,59,60,61,62,63,64,65,66,67,68,69,70,71,72,73,74,75,76,77,78,79,80,81,82,83,84,85,86,87,88,89,90,91,92,93,94,95,96,97,98,99,100],"tree_info":[0,0,0,0,0,0,0,0,0,0,0,0,0,0,0,0,0,0,0,0,0,0,0,0,0,0,0,0,0,0,0,0,0,0,0,0,0,0,0,0,0,0,0,0,0,0,0,0,0,0,0,0,0,0,0,0,0,0,0,0,0,0,0,0,0,0,0,0,0,0,0,0,0,0,0,0,0,0,0,0,0,0,0,0,0,0,0,0,0,0,0,0,0,0,0,0,0,0,0,0],"trees":[{"base_weights":[8.068297E-7,-5.0455637E0,6.1138134E0,-8.155409E0,-2.9293873E0,3.191221E0,8.781294E0,-1.1163008E1,-7.026196E0,-5.5693936E-1,-4.372446E0,4.888409E0,-6.3025105E-1,9.951964E0,5.0540686E0,-1.3235719E0,-9.8389196E-1,-5.931688E0,-8.239862E0,-1.5609218E0,1.1325756E0,-5.2885404E0,-2.2293763E0,5.175295E0,2.082673E0,1.4875729E0,-1.2795691E0,8.002183E0,1.127679E1,3.8290586E0,8.796036E0,-7.246921E-1,-4.9238378E-1,-8.3686495E-1,-3.4431717E-1,-1.0765415E-1,-3.6345682E-1,4.2802077E-2,2.0942162E-1,-5.853245E-1,-4.220553E-1,-2.829974E-1,-1.03483535E-1,5.386896E-1,2.5989303E-1,2.5477847E-1,-2.9121143E-1,2.0335357E-1,-1.0681715E-1,-2.2130172E-1,-8.0460414E-2,1.650514E-1,8.130704E-1,1.1349525E0,1.2378855E-1,4.6767408E-1,2.9662618E-1,9.1440535E-1,1.7878857E-1],"categories":[],"categories_nodes":[],"categories_segments":[],"categories_sizes":[],"default_left":[0,0,0,0,0,0,0,0,0,0,0,0,0,0,0,0,0,0,0,0,0,0,0,0,0,0,0,0,0,0,0,0,0,0,0,0,0,0,0,0,0,0,0,0,0,0,0,0,0,0,0,0,0,0,0,0,0,0,0],"id":0,"left_children":[1,3,5,7,9,11,13,15,17,19,21,23,25,27,29,-1,-1,31,33,35,37,39,41,43,45,47,49,51,53,55,57,-1,-1,-1,-1,-1,-1,-1,-1,-1,-1,-1,-1,-1,-1,-1,-1,-1,-1,-1,-1,-1,-1,-1,-1,-1,-1,-1,-1],"loss_changes":[3.6091734E4,4.1945195E3,4.096039E3,8.0118945E2,1.3087969E3,1.6504629E3,1.1539863E3,5.91416E1,2.048418E2,2.4941937E2,4.5546484E2,1.3088867E2,1.1053963E2,4.496328E2,2.7802783E2,0E0,0E0,1.0217529E2,2.5547852E1,8.849513E1,3.6367714E1,7.541016E1,4.9444427E1,7.2680664E1,4.9235863E1,2.8683659E1,2.5264061E1,5.8416504E1,7.50332E1,2.4890625E1,2.2674805E1,0E0,0E0,0E0,0E0,0E0,0E0,0E0,0E0,0E0,0E0,0E0,0E0,0E0,0E0,0E0,0E0,0E0,0E0,0E0,0E0,0E0,0E0,0E0,0E0,0E0,0E0,0E0,0E0],"parents":[2147483647,0,0,1,1,2,2,3,3,4,4,5,5,6,6,7,7,8,8,9,9,10,10,11,11,12,12,13,13,14,14,17,17,18,18,19,19,20,20,21,21,22,22,23,23,24,24,25,25,26,26,27,27,28,28,29,29,30,30],"right_children":[2,4,6,8,10,12,14,16,18,20,22,24,26,28,30,-1,-1,32,34,36,38,40,42,44,46,48,50,52,54,56,58,-1,-1,-1,-1,-1,-1,-1,-1,-1,-1,-1,-1,-1,-1,-1,-1,-1,-1,-1,-1,-1,-1,-1,-1,-1,-1,-1,-1],"split_conditions":[9.4E0,4.4E0,1.28E1,6E-1,3E-1,5E-1,3E-1,-2.2E0,5E-1,7.8E0,7.8E0,4.3E0,2E0,1.44E1,1.56E1,-1.3235719E0,-9.8389196E-1,2.2E0,2.31E1,4.5E0,2.8E0,6.7E0,8.9E0,3E-1,6.6E0,4.1E0,1E1,1.2E0,4.8E0,2.5E0,1.96E1,-7.246921E-1,-4.9238378E-1,-8.3686495E-1,-3.4431717E-1,-1.0765415E-1,-3.6345682E-1,4.2802077E-2,2.0942162E-1,-5.853245E-1,-4.220553E-1,-2.829974E-1,-1.03483535E-1,5.386896E-1,2.5989303E-1,2.5477847E-1,-2.9121143E-1,2.0335357E-1,-1.0681715E-1,-2.2130172E-1,-8.0460414E-2,1.650514E-1,8.130704E-1,1.1349525E0,1.2378855E-1,4.6767408E-1,2.9662618E-1,9.1440535E-1,1.7878857E-1],"split_indices":[1,1,1,1,0,0,0,1,0,1,1,2,0,1,1,0,0,1,0,2,2,1,1,0,2,2,1,2,2,0,0,0,0,0,0,0,0,0,0,0,0,0,0,0,0,0,0,0,0,0,0,0,0,0,0,0,0,0,0],"split_type":[0,0,0,0,0,0,0,0,0,0,0,0,0,0,0,0,0,0,0,0,0,0,0,0,0,0,0,0,0,0,0,0,0,0,0,0,0,0,0,0,0,0,0,0,0,0,0,0,0,0,0,0,0,0,0,0,0,0,0],"sum_hessian":[1.168E3,6.4E2,5.28E2,2.58E2,3.82E2,2.53E2,2.75E2,6.8E1,1.9E2,1.45E2,2.37E2,1.75E2,7.8E1,2.08E2,6.7E1,2.3E1,4.5E1,1.03E2,8.7E1,9.1E1,5.4E1,1.65E2,7.2E1,1.58E2,1.7E1,1.8E1,6E1,8.7E1,1.21E2,5.2E1,1.5E1,4.2E1,6.1E1,8.4E1,3E0,7.5E1,1.6E1,3.2E1,2.2E1,1.05E2,6E1,4.7E1,2.5E1,1.45E2,1.3E1,1.6E1,1E0,1.5E1,3E0,1.9E1,4.1E1,2E0,8.5E1,1.2E2,1E0,2.4E1,2.8E1,1.4E1,1E0],"tree_param":{"num_deleted":"0","num_feature":"3","num_nodes":"59","size_leaf_vector":"1"}},{"base_weights":[-1.4253417E-3,-4.5508647E0,5.5112247E0,-7.358037E0,-2.6406593E0,3.1944304E0,8.266587E0,-9.564504E0,-6.105936E0,-5.027445E-1,-3.9410582E0,4.7284555E0,-2.500084E-1,9.20863E0,5.0640545E0,-1.1967295E0,-8.590135E-1,-5.0014825E0,-7.230454E0,-1.40995E0,1.0239037E0,-4.7657547E0,-2.011733E0,3.7827265E0,5.9894295E0,1.7246268E0,-9.1422313E-1,7.2522845E0,1.0159429E1,3.830834E0,7.984756E0,-6.0449356E-1,-4.2655036E-1,-7.3452187E-1,-3.1849343E-1,-9.7030334E-2,-3.292491E-1,3.86515E-2,1.8939003E-1,-5.2734435E-1,-3.8054156E-1,-2.5528726E-1,-9.3533225E-2,4.1119424E-1,1.4475559E-1,6.349363E-1,1.7763932E-1,5.068731E-2,3.007006E-1,-1.4329404E-1,3.1495076E-2,1.5404803E-1,7.41169E-1,2.560546E-1,1.0264739E0,4.4114023E-1,2.6116976E-1,8.2906073E-1,1.6984911E-1],"categories":[],"categories_nodes":[],"categories_segments":[],"categories_sizes":[],"default_left":[0,0,0,0,0,0,0,0,0,0,0,0,0,0,0,0,0,0,0,0,0,0,0,0,0,0,0,0,0,0,0,0,0,0,0,0,0,0,0,0,0,0,0,0,0,0,0,0,0,0,0,0,0,0,0,0,0,0,0],"id":1,"left_children":[1,3,5,7,9,11,13,15,17,19,21,23,25,27,29,-1,-1,31,33,35,37,39,41,43,45,47,49,51,53,55,57,-1,-1,-1,-1,-1,-1,-1,-1,-1,-1,-1,-1,-1,-1,-1,-1,-1,-1,-1,-1,-1,-1,-1,-1,-1,-1,-1,-1],"loss_changes":[2.9342979E4,3.417788E3,3.3505234E3,6.5714355E2,1.062813E3,1.5282166E3,6.804453E2,1.1259082E2,1.7248926E2,2.0365128E2,3.6909644E2,2.1585156E2,1.1961906E2,2.7043652E2,1.7471826E2,0E0,0E0,4.1795654E1,1.4212891E1,7.294934E1,2.9766903E1,6.086621E1,4.0133484E1,8.399451E1,1.1609985E2,3.4393135E1,4.380768E1,4.685376E1,7.13457E1,1.8206055E1,1.6681091E1,0E0,0E0,0E0,0E0,0E0,0E0,0E0,0E0,0E0,0E0,0E0,0E0,0E0,0E0,0E0,0E0,0E0,0E0,0E0,0E0,0E0,0E0,0E0,0E0,0E0,0E0,0E0,0E0],"parents":[2147483647,0,0,1,1,2,2,3,3,4,4,5,5,6,6,7,7,8,8,9,9,10,10,11,11,12,12,13,13,14,14,17,17,18,18,19,19,20,20,21,21,22,22,23,23,24,24,25,25,26,26,27,27,28,28,29,29,30,30],"right_children":[2,4,6,8,10,12,14,16,18,20,22,24,26,28,30,-1,-1,32,34,36,38,40,42,44,46,48,50,52,54,56,58,-1,-1,-1,-1,-1,-1,-1,-1,-1,-1,-1,-1,-1,-1,-1,-1,-1,-1,-1,-1,-1,-1,-1,-1,-1,-1,-1,-1],"split_conditions":[9.4E0,4.4E0,1.33E1,1.1E0,3E-1,5E-1,3E-1,-2.2E0,5E-1,7.8E0,7.8E0,1.17E1,2E0,1.44E1,1.56E1,-1.1967295E0,-8.590135E-1,2.2E0,2.31E1,4.5E0,2.8E0,6.7E0,8.9E0,4.3E0,3E-1,1.17E1,1.17E1,1.2E0,1.5E0,8.1E0,1.96E1,-6.0449356E-1,-4.2655036E-1,-7.3452187E-1,-3.1849343E-1,-9.7030334E-2,-3.292491E-1,3.86515E-2,1.8939003E-1,-5.2734435E-1,-3.8054156E-1,-2.5528726E-1,-9.3533225E-2,4.1119424E-1,1.4475559E-1,6.349363E-1,1.7763932E-1,5.068731E-2,3.007006E-1,-1.4329404E-1,3.1495076E-2,1.5404803E-1,7.41169E-1,2.560546E-1,1.0264739E0,4.4114023E-1,2.6116976E-1,8.2906073E-1,1.6984911E-1],"split_indices":[1,1,1,1,0,0,0,1,0,1,1,1,0,1,1,0,0,2,0,2,2,1,1,2,0,1,1,2,2,0,0,0,0,0,0,0,0,0,0,0,0,0,0,0,0,0,0,0,0,0,0,0,0,0,0,0,0,0,0],"split_type":[0,0,0,0,0,0,0,0,0,0,0,0,0,0,0,0,0,0,0,0,0,0,0,0,0,0,0,0,0,0,0,0,0,0,0,0,0,0,0,0,0,0,0,0,0,0,0,0,0,0,0,0,0,0,0,0,0,0,0],"sum_hessian":[1.168E3,6.4E2,5.28E2,2.58E2,3.82E2,2.88E2,2.4E2,9.1E1,1.67E2,1.45E2,2.37E2,1.99E2,8.9E1,1.84E2,5.6E1,2.3E1,6.8E1,8.7E1,8E1,9.1E1,5.4E1,1.65E2,7.2E1,1.16E2,8.3E1,2.2E1,6.7E1,6.3E1,1.21E2,4.1E1,1.5E1,3.3E1,5.4E1,7.7E1,3E0,7.5E1,1.6E1,3.2E1,2.2E1,1.05E2,6E1,4.7E1,2.5E1,1.01E2,1.5E1,7.6E1,7E0,1.2E1,1E1,4.7E1,2E1,2E0,6.1E1,2E0,1.19E2,2.6E1,1.5E1,1.4E1,1E0],"tree_param":{"num_deleted":"0","num_feature":"3","num_nodes":"59","size_leaf_vector":"1"}},{"base_weights":[-1.3748748E-3,-4.104506E0,4.9704747E0,-6.6382174E0,-2.380392E0,2.5827599E0,7.1498556E0,-9.121012E0,-5.7065363E0,-4.5382792E-1,-3.5522325E0,3.9609332E0,-5.202937E-1,7.8744183E0,3.2554488E0,-1.082043E0,-8.0360764E-1,-4.8047776E0,-6.707404E0,-1.6800549E0,4.7124505E-1,-4.294648E0,-1.8153385E0,4.194104E0,1.6812035E0,1.2169247E0,-1.0528651E0,6.9400673E0,9.854363E0,2.6335325E0,5.80262E0,-5.539565E-1,-3.5406026E-1,-7.054254E-1,-4.966642E-1,-1.18647516E-1,-3.6788958E-1,-1.5295538E-2,1.19539835E-1,-4.7510734E-1,-3.4311122E-1,-2.302904E-1,-8.453971E-2,4.366896E-1,2.0925553E-1,2.1140845E-1,-2.8388864E-1,1.7172424E-1,-1.0885777E-1,-1.8666516E-1,-6.402795E-2,7.1974325E-1,4.1578537E-1,9.9744886E-1,6.627541E-2,9.055672E-2,2.9945064E-1,1.4661522E-1,6.212665E-1],"categories":[],"categories_nodes":[],"categories_segments":[],"categories_sizes":[],"default_left":[0,0,0,0,0,0,0,0,0,0,0,0,0,0,0,0,0,0,0,0,0,0,0,0,0,0,0,0,0,0,0,0,0,0,0,0,0,0,0,0,0,0,0,0,0,0,0,0,0,0,0,0,0,0,0,0,0,0,0],"id":2,"left_children":[1,3,5,7,9,11,13,15,17,19,21,23,25,27,29,-1,-1,31,33,35,37,39,41,43,45,47,49,51,53,55,57,-1,-1,-1,-1,-1,-1,-1,-1,-1,-1,-1,-1,-1,-1,-1,-1,-1,-1,-1,-1,-1,-1,-1,-1,-1,-1,-1,-1],"loss_changes":[2.3868182E4,2.7843467E3,2.7343125E3,5.470635E2,8.630586E2,1.0883033E3,7.5316504E2,4.0265625E1,1.4015723E2,1.6640674E2,2.99104E2,8.650464E1,7.437149E1,3.6080176E2,5.6004272E1,0E0,0E0,7.699243E1,1.8097168E1,5.779007E1,3.8152252E1,4.912549E1,3.257556E1,4.859961E1,4.1221542E1,2.3785545E1,1.928598E1,8.53584E1,7.288721E1,2.0990814E1,5.116455E0,0E0,0E0,0E0,0E0,0E0,0E0,0E0,0E0,0E0,0E0,0E0,0E0,0E0,0E0,0E0,0E0,0E0,0E0,0E0,0E0,0E0,0E0,0E0,0E0,0E0,0E0,0E0,0E0],"parents":[2147483647,0,0,1,1,2,2,3,3,4,4,5,5,6,6,7,7,8,8,9,9,10,10,11,11,12,12,13,13,14,14,17,17,18,18,19,19,20,20,21,21,22,22,23,23,24,24,25,25,26,26,27,27,28,28,29,29,30,30],"right_children":[2,4,6,8,10,12,14,16,18,20,22,24,26,28,30,-1,-1,32,34,36,38,40,42,44,46,48,50,52,54,56,58,-1,-1,-1,-1,-1,-1,-1,-1,-1,-1,-1,-1,-1,-1,-1,-1,-1,-1,-1,-1,-1,-1,-1,-1,-1,-1,-1,-1],"split_conditions":[9.4E0,4.4E0,1.28E1,6E-1,3E-1,5E-1,1.8E0,-2.2E0,5E-1,6.7E0,7.8E0,4.3E0,2E0,1.56E1,1.56E1,-1.082043E0,-8.0360764E-1,3.3E0,9.9E0,4.5E0,2.9E0,6.7E0,8.9E0,3E-1,6.6E0,4.1E0,1E1,3E-1,4.8E0,2.3E0,2E0,-5.539565E-1,-3.5406026E-1,-7.054254E-1,-4.966642E-1,-1.18647516E-1,-3.6788958E-1,-1.5295538E-2,1.19539835E-1,-4.7510734E-1,-3.4311122E-1,-2.302904E-1,-8.453971E-2,4.366896E-1,2.0925553E-1,2.1140845E-1,-2.8388864E-1,1.7172424E-1,-1.0885777E-1,-1.8666516E-1,-6.402795E-2,7.1974325E-1,4.1578537E-1,9.9744886E-1,6.627541E-2,9.055672E-2,2.9945064E-1,1.4661522E-1,6.212665E-1],"split_indices":[1,1,1,1,0,0,0,1,0,1,1,2,0,1,1,0,0,1,0,2,2,1,1,0,2,2,1,0,2,2,0,0,0,0,0,0,0,0,0,0,0,0,0,0,0,0,0,0,0,0,0,0,0,0,0,0,0,0,0],"split_type":[0,0,0,0,0,0,0,0,0,0,0,0,0,0,0,0,0,0,0,0,0,0,0,0,0,0,0,0,0,0,0,0,0,0,0,0,0,0,0,0,0,0,0,0,0,0,0,0,0,0,0,0,0,0,0,0,0,0,0],"sum_hessian":[1.168E3,6.4E2,5.28E2,2.58E2,3.82E2,2.53E2,2.75E2,6.8E1,1.9E2,1.45E2,2.37E2,1.75E2,7.8E1,2.31E2,4.4E1,2.3E1,4.5E1,1.03E2,8.7E1,6.2E1,8.3E1,1.65E2,7.2E1,1.58E2,1.7E1,1.8E1,6E1,1.6E2,7.1E1,3.7E1,7E0,6.3E1,4E1,7E1,1.7E1,5.1E1,1.1E1,4.5E1,3.8E1,1.05E2,6E1,4.7E1,2.5E1,1.45E2,1.3E1,1.6E1,1E0,1.5E1,3E0,1.9E1,4.1E1,1.45E2,1.5E1,7E1,1E0,7E0,3E1,1E0,6E0],"tree_param":{"num_deleted":"0","num_feature":"3","num_nodes":"59","size_leaf_vector":"1"}},{"base_weights":[-2.7500936E-3,-3.7026534E0,4.4805026E0,-5.9898233E0,-2.1463096E0,2.8686755E0,7.1605334E0,-7.8190737E0,-4.952437E0,-4.1106394E-1,-3.20177E0,4.051798E0,-3.9422665E-2,7.9345903E0,4.3524165E0,-9.7834724E-1,-7.022485E-1,-4.0562515E0,-5.864929E0,-1.1824582E0,8.867421E-1,-3.8701127E0,-1.6381174E0,3.0210276E0,5.0230336E0,-8.7042266E-1,1.27372E0,7.484467E0,1.0428969E1,3.057772E0,6.5078487E0,-4.7001544E-1,-3.0853227E-1,-5.9585255E-1,-2.5735658E-1,-8.0961674E-2,-2.7797222E-1,3.638654E-2,1.5984027E-1,-4.2804486E-1,-3.093626E-1,-2.0774113E-1,-7.641092E-2,3.0935702E-1,-2.6969418E-1,5.2370864E-1,2.8583646E-1,3.447361E-2,-1.1813944E-1,2.5248626E-1,7.3670976E-2,7.184639E-2,7.5299376E-1,1.1436587E-1,1.0836052E0,3.245367E-1,1.02706194E-1,6.767981E-1,1.3029328E-1],"categories":[],"categories_nodes":[],"categories_segments":[],"categories_sizes":[],"default_left":[0,0,0,0,0,0,0,0,0,0,0,0,0,0,0,0,0,0,0,0,0,0,0,0,0,0,0,0,0,0,0,0,0,0,0,0,0,0,0,0,0,0,0,0,0,0,0,0,0,0,0,0,0,0,0,0,0,0,0],"id":3,"left_children":[1,3,5,7,9,11,13,15,17,19,21,23,25,27,29,-1,-1,31,33,35,37,39,41,43,45,47,49,51,53,55,57,-1,-1,-1,-1,-1,-1,-1,-1,-1,-1,-1,-1,-1,-1,-1,-1,-1,-1,-1,-1,-1,-1,-1,-1,-1,-1,-1,-1],"loss_changes":[1.9407496E4,2.2688613E3,2.2646035E3,4.5276465E2,7.001417E2,1.1424507E3,3.9584668E2,7.525928E1,1.1359424E2,1.4721208E2,2.4238379E2,2.210896E2,1.0695716E2,9.485254E1,1.0567377E2,0E0,0E0,4.051477E1,9.618164E0,5.2537903E1,1.988448E1,3.9648926E1,2.644072E1,5.6874146E1,4.0632812E1,2.3080067E1,2.3671211E1,3.581543E1,6.698486E1,8.095367E0,1.2845276E1,0E0,0E0,0E0,0E0,0E0,0E0,0E0,0E0,0E0,0E0,0E0,0E0,0E0,0E0,0E0,0E0,0E0,0E0,0E0,0E0,0E0,0E0,0E0,0E0,0E0,0E0,0E0,0E0],"parents":[2147483647,0,0,1,1,2,2,3,3,4,4,5,5,6,6,7,7,8,8,9,9,10,10,11,11,12,12,13,13,14,14,17,17,18,18,19,19,20,20,21,21,22,22,23,23,24,24,25,25,26,26,27,27,28,28,29,29,30,30],"right_children":[2,4,6,8,10,12,14,16,18,20,22,24,26,28,30,-1,-1,32,34,36,38,40,42,44,46,48,50,52,54,56,58,-1,-1,-1,-1,-1,-1,-1,-1,-1,-1,-1,-1,-1,-1,-1,-1,-1,-1,-1,-1,-1,-1,-1,-1,-1,-1,-1,-1],"split_conditions":[9.4E0,4.4E0,1.39E1,1.1E0,3E-1,5E-1,3E-1,-2.2E0,5E-1,7.8E0,7.8E0,1.17E1,1.17E1,1.72E1,1.56E1,-9.7834724E-1,-7.022485E-1,2.7E0,2.31E1,4.5E0,2.8E0,6.7E0,8.9E0,6.6E0,3E-1,2E0,2E0,1.1E0,7E-1,4.6E0,1.96E1,-4.7001544E-1,-3.0853227E-1,-5.9585255E-1,-2.5735658E-1,-8.0961674E-2,-2.7797222E-1,3.638654E-2,1.5984027E-1,-4.2804486E-1,-3.093626E-1,-2.0774113E-1,-7.641092E-2,3.0935702E-1,-2.6969418E-1,5.2370864E-1,2.8583646E-1,3.447361E-2,-1.1813944E-1,2.5248626E-1,7.3670976E-2,7.184639E-2,7.5299376E-1,1.1436587E-1,1.0836052E0,3.245367E-1,1.02706194E-1,6.767981E-1,1.3029328E-1],"split_indices":[1,1,1,1,0,0,0,1,0,1,1,1,1,1,1,0,0,2,0,2,2,1,1,2,0,0,0,2,2,2,0,0,0,0,0,0,0,0,0,0,0,0,0,0,0,0,0,0,0,0,0,0,0,0,0,0,0,0,0],"split_type":[0,0,0,0,0,0,0,0,0,0,0,0,0,0,0,0,0,0,0,0,0,0,0,0,0,0,0,0,0,0,0,0,0,0,0,0,0,0,0,0,0,0,0,0,0,0,0,0,0,0,0,0,0,0,0,0,0,0,0],"sum_hessian":[1.168E3,6.4E2,5.28E2,2.58E2,3.82E2,3.31E2,1.97E2,9.1E1,1.67E2,1.45E2,2.37E2,2.35E2,9.6E1,1.53E2,4.4E1,2.3E1,6.8E1,8.7E1,8E1,9.1E1,5.4E1,1.65E2,7.2E1,1.16E2,1.19E2,5.9E1,3.7E1,1.33E2,2E1,2.9E1,1.5E1,5E1,3.7E1,7.7E1,3E0,7.5E1,1.6E1,3.2E1,2.2E1,1.05E2,6E1,4.7E1,2.5E1,1.15E2,1E0,1.07E2,1.2E1,1.2E1,4.7E1,1E1,2.7E1,1E0,1.32E2,1E0,1.9E1,2.6E1,3E0,1.4E1,1E0],"tree_param":{"num_deleted":"0","num_feature":"3","num_nodes":"59","size_leaf_vector":"1"}},{"base_weights":[-2.6015514E-3,-3.339403E0,4.0406733E0,-4.963108E0,-1.5455981E0,2.3203692E0,6.086844E0,-6.790922E0,-4.0434155E0,-1.345085E-1,-2.5595586E0,3.444844E0,-2.0424575E-1,6.6338863E0,3.2565427E0,-8.697325E-1,-6.105466E-1,-3.0213258E0,-4.7885427E0,-8.9209944E-1,7.515894E-1,-3.1233113E0,-1.6016748E0,2.719264E0,4.4144635E0,1.2746305E0,-7.014503E-1,5.776352E0,8.190672E0,2.5544653E0,4.9390755E0,-4.4134927E-1,-2.2127764E-1,-5.099803E-1,-4.2459846E-1,-6.991354E-2,-2.8338608E-1,2.6049185E-1,6.0834546E-2,-3.146531E-1,-2.845788E-2,-1.9012193E-1,-9.3294755E-2,2.9794264E-1,8.907761E-2,4.6923754E-1,1.1877532E-1,1.7750816E-1,-8.820095E-2,-3.0894069E-2,-1.6974519E-1,1.3359089E-1,5.8685476E-1,1.435758E-1,8.370882E-1,1.1916194E-1,2.902311E-1,1.0544453E-1,5.222094E-1],"categories":[],"categories_nodes":[],"categories_segments":[],"categories_sizes":[],"default_left":[0,0,0,0,0,0,0,0,0,0,0,0,0,0,0,0,0,0,0,0,0,0,0,0,0,0,0,0,0,0,0,0,0,0,0,0,0,0,0,0,0,0,0,0,0,0,0,0,0,0,0,0,0,0,0,0,0,0,0],"id":4,"left_children":[1,3,5,7,9,11,13,15,17,19,21,23,25,27,29,-1,-1,31,33,35,37,39,41,43,45,47,49,51,53,55,57,-1,-1,-1,-1,-1,-1,-1,-1,-1,-1,-1,-1,-1,-1,-1,-1,-1,-1,-1,-1,-1,-1,-1,-1,-1,-1,-1,-1],"loss_changes":[1.578518E4,1.859312E3,1.8479746E3,5.373672E2,4.3747723E2,8.2113574E2,3.5153613E2,9.194873E1,1.5765088E2,8.726816E1,9.111914E1,1.2870312E2,6.707146E1,2.2102246E2,3.581534E1,0E0,0E0,1.005462E2,1.3134766E-1,2.4247063E1,1.4344002E1,6.4210205E0,1.184758E1,5.3003296E1,6.975281E1,2.6389374E1,2.6059525E1,4.6608887E1,7.19751E1,1.1237396E1,6.5872803E0,0E0,0E0,0E0,0E0,0E0,0E0,0E0,0E0,0E0,0E0,0E0,0E0,0E0,0E0,0E0,0E0,0E0,0E0,0E0,0E0,0E0,0E0,0E0,0E0,0E0,0E0,0E0,0E0],"parents":[2147483647,0,0,1,1,2,2,3,3,4,4,5,5,6,6,7,7,8,8,9,9,10,10,11,11,12,12,13,13,14,14,17,17,18,18,19,19,20,20,21,21,22,22,23,23,24,24,25,25,26,26,27,27,28,28,29,29,30,30],"right_children":[2,4,6,8,10,12,14,16,18,20,22,24,26,28,30,-1,-1,32,34,36,38,40,42,44,46,48,50,52,54,56,58,-1,-1,-1,-1,-1,-1,-1,-1,-1,-1,-1,-1,-1,-1,-1,-1,-1,-1,-1,-1,-1,-1,-1,-1,-1,-1,-1,-1],"split_conditions":[9.4E0,5.6E0,1.33E1,1.7E0,5E-1,5E-1,8E-1,-2.1E0,3E-1,7.8E0,7.8E0,1.17E1,2E0,1.56E1,1.56E1,-8.697325E-1,-6.105466E-1,2.2E0,4.4E0,5.3E0,1.4E0,8.2E0,8.9E0,4.3E0,3E-1,4.1E0,1.32E1,1.2E0,1.5E0,2.3E0,1.1E0,-4.4134927E-1,-2.2127764E-1,-5.099803E-1,-4.2459846E-1,-6.991354E-2,-2.8338608E-1,2.6049185E-1,6.0834546E-2,-3.146531E-1,-2.845788E-2,-1.9012193E-1,-9.3294755E-2,2.9794264E-1,8.907761E-2,4.6923754E-1,1.1877532E-1,1.7750816E-1,-8.820095E-2,-3.0894069E-2,-1.6974519E-1,1.3359089E-1,5.8685476E-1,1.435758E-1,8.370882E-1,1.1916194E-1,2.902311E-1,1.0544453E-1,5.222094E-1],"split_indices":[1,1,1,1,0,0,0,1,0,1,1,1,0,1,1,0,0,2,1,2,2,2,1,2,0,2,0,2,2,2,2,0,0,0,0,0,0,0,0,0,0,0,0,0,0,0,0,0,0,0,0,0,0,0,0,0,0,0,0],"split_type":[0,0,0,0,0,0,0,0,0,0,0,0,0,0,0,0,0,0,0,0,0,0,0,0,0,0,0,0,0,0,0,0,0,0,0,0,0,0,0,0,0,0,0,0,0,0,0,0,0,0,0,0,0,0,0,0,0,0,0],"sum_hessian":[1.168E3,6.4E2,5.28E2,3.35E2,3.05E2,2.88E2,2.4E2,1.1E2,2.25E2,1.28E2,1.77E2,1.99E2,8.9E1,2E2,4E1,2.6E1,8.4E1,9.7E1,1.28E2,6.9E1,5.9E1,1.1E2,6.7E1,1.16E2,8.3E1,2.2E1,6.7E1,1.32E2,6.8E1,3E1,1E1,3.4E1,6.3E1,7.6E1,5.2E1,6.4E1,5E0,3E0,5.6E1,1.09E2,1E0,4.5E1,2.2E1,1.01E2,1.5E1,7.6E1,7E0,1.8E1,4E0,4.9E1,1.8E1,3E0,1.29E2,2E0,6.6E1,7E0,2.3E1,1E0,9E0],"tree_param":{"num_deleted":"0","num_feature":"3","num_nodes":"59","size_leaf_vector":"1"}},{"base_weights":[-2.456199E-3,-3.011291E0,3.6434145E0,-5.4546375E0,-2.0305858E0,2.3186898E0,5.8462687E0,-7.166133E-1,-4.7573376E0,-7.3976916E-1,-2.8607192E0,3.2767327E0,-3.6122292E-2,6.4808035E0,3.5448325E0,-4.221243E0,-5.3980737E0,-1.702562E0,3.9229578E-1,-3.72956E0,-1.8789124E0,2.4506452E0,4.054862E0,-7.548203E-1,1.0996146E0,6.087959E0,8.678917E0,2.46627E0,5.345585E0,-4.4905177E-1,-3.3439416E-1,-5.702438E-1,-3.1411934E-1,-2.6574096E-1,-1.2826599E-1,-1.7600765E-2,1.0525435E-1,-4.0550676E-1,-3.0938694E-1,-2.164896E-1,-6.1871517E-2,2.5167134E-1,-2.6066336E-1,4.2237702E-1,2.3397127E-1,-1.4341037E-1,-3.5228044E-2,-1.423059E-1,1.2792926E-1,6.1574556E-2,6.124474E-1,1.0146876E-1,9.0113944E-1,2.6427886E-1,6.582022E-2,5.5717325E-1,9.766817E-2],"categories":[],"categories_nodes":[],"categories_segments":[],"categories_sizes":[],"default_left":[0,0,0,0,0,0,0,0,0,0,0,0,0,0,0,0,0,0,0,0,0,0,0,0,0,0,0,0,0,0,0,0,0,0,0,0,0,0,0,0,0,0,0,0,0,0,0,0,0,0,0,0,0,0,0,0,0],"id":5,"left_children":[1,3,5,7,9,11,13,-1,15,17,19,21,23,25,27,29,31,33,35,37,39,41,43,45,47,49,51,53,55,-1,-1,-1,-1,-1,-1,-1,-1,-1,-1,-1,-1,-1,-1,-1,-1,-1,-1,-1,-1,-1,-1,-1,-1,-1,-1,-1,-1],"loss_changes":[1.2834694E4,1.5248901E3,1.5301592E3,1.8430518E2,4.897251E2,7.49114E2,2.661748E2,0E0,2.2898682E1,1.9794778E2,2.3098877E2,1.417644E2,8.000645E1,8.014453E1,7.421643E1,3.1740723E0,2.1241455E1,3.588379E1,3.1703821E1,1.7871826E1,4.659314E1,4.565277E1,2.4881836E1,1.5901108E1,1.9044724E1,2.3004395E1,4.4368042E1,7.8352356E0,1.0366486E1,0E0,0E0,0E0,0E0,0E0,0E0,0E0,0E0,0E0,0E0,0E0,0E0,0E0,0E0,0E0,0E0,0E0,0E0,0E0,0E0,0E0,0E0,0E0,0E0,0E0,0E0,0E0,0E0],"parents":[2147483647,0,0,1,1,2,2,3,3,4,4,5,5,6,6,8,8,9,9,10,10,11,11,12,12,13,13,14,14,15,15,16,16,17,17,18,18,19,19,20,20,21,21,22,22,23,23,24,24,25,25,26,26,27,27,28,28],"right_children":[2,4,6,8,10,12,14,-1,16,18,20,22,24,26,28,30,32,34,36,38,40,42,44,46,48,50,52,54,56,-1,-1,-1,-1,-1,-1,-1,-1,-1,-1,-1,-1,-1,-1,-1,-1,-1,-1,-1,-1,-1,-1,-1,-1,-1,-1,-1,-1],"split_conditions":[9.4E0,3.3E0,1.39E1,-5E-1,3E-1,5E-1,3E-1,-7.166133E-1,5E-1,6.7E0,6.7E0,1.17E1,1.17E1,1.72E1,1.56E1,2.2E0,9.9E0,2.1E0,2.9E0,5.6E0,8.9E0,6.6E0,3E-1,1E1,2E0,1.1E0,7E-1,4.6E0,1.96E1,-4.4905177E-1,-3.3439416E-1,-5.702438E-1,-3.1411934E-1,-2.6574096E-1,-1.2826599E-1,-1.7600765E-2,1.0525435E-1,-4.0550676E-1,-3.0938694E-1,-2.164896E-1,-6.1871517E-2,2.5167134E-1,-2.6066336E-1,4.2237702E-1,2.3397127E-1,-1.4341037E-1,-3.5228044E-2,-1.423059E-1,1.2792926E-1,6.1574556E-2,6.124474E-1,1.0146876E-1,9.0113944E-1,2.6427886E-1,6.582022E-2,5.5717325E-1,9.766817E-2],"split_indices":[1,1,1,1,0,0,0,0,0,1,1,1,1,1,1,1,0,2,2,1,1,2,0,1,2,2,2,2,0,0,0,0,0,0,0,0,0,0,0,0,0,0,0,0,0,0,0,0,0,0,0,0,0,0,0,0,0],"split_type":[0,0,0,0,0,0,0,0,0,0,0,0,0,0,0,0,0,0,0,0,0,0,0,0,0,0,0,0,0,0,0,0,0,0,0,0,0,0,0,0,0,0,0,0,0,0,0,0,0,0,0,0,0,0,0,0,0],"sum_hessian":[1.168E3,6.4E2,5.28E2,1.82E2,4.58E2,3.31E2,1.97E2,5E1,1.32E2,1.8E2,2.78E2,2.35E2,9.6E1,1.53E2,4.4E1,7.6E1,5.6E1,9.7E1,8.3E1,1.46E2,1.32E2,1.16E2,1.19E2,5.9E1,3.7E1,1.33E2,2E1,2.9E1,1.5E1,5.5E1,2.1E1,4.8E1,8E0,2.8E1,6.9E1,4.5E1,3.8E1,9.3E1,5.3E1,1.07E2,2.5E1,1.15E2,1E0,1.07E2,1.2E1,2.1E1,3.8E1,2E0,3.5E1,1E0,1.32E2,1E0,1.9E1,2.6E1,3E0,1.4E1,1E0],"tree_param":{"num_deleted":"0","num_feature":"3","num_nodes":"57","size_leaf_vector":"1"}},{"base_weights":[-2.6964224E-3,-2.9205036E0,3.0581954E0,-4.9222035E0,-2.035056E0,1.2300305E0,4.571864E0,-6.4635706E0,-4.2941437E0,-8.770636E-1,-2.7747242E0,2.2508838E0,-5.6672406E-1,5.223342E0,2.5504646E0,-7.3256415E-1,-5.493811E0,-3.809293E0,-4.8737817E0,-1.5363259E0,1.0032105E-1,-3.361467E0,-1.9504106E0,2.4541764E0,6.4413893E-1,-3.000699E-1,-1.5516737E0,4.1716976E0,6.1632113E0,1.9254757E0,4.8519545E0,-6.522115E-1,-4.167807E-1,-4.0494847E-1,-3.0247468E-1,-5.143832E-1,-2.8619763E-1,-1.2498263E-1,-2.7402225E-1,2.3568962E-2,-1.6253872E-1,-3.6538744E-1,-2.7902117E-1,-2.2836272E-1,-1.4863144E-1,2.3082311E-1,4.701448E-1,9.387043E-2,-2.4763022E-1,-8.70246E-2,1.577454E-2,-1.7003779E-1,-1.4222336E-2,5.090561E-2,4.2325568E-1,6.221943E-1,-4.7164824E-2,9.7972296E-2,2.3750253E-1,7.231369E-2,5.0789994E-1],"categories":[],"categories_nodes":[],"categories_segments":[],"categories_sizes":[],"default_left":[0,0,0,0,0,0,0,0,0,0,0,0,0,0,0,0,0,0,0,0,0,0,0,0,0,0,0,0,0,0,0,0,0,0,0,0,0,0,0,0,0,0,0,0,0,0,0,0,0,0,0,0,0,0,0,0,0,0,0,0,0],"id":6,"left_children":[1,3,5,7,9,11,13,15,17,19,21,23,25,27,29,-1,31,33,35,37,39,41,43,45,47,49,51,53,55,57,59,-1,-1,-1,-1,-1,-1,-1,-1,-1,-1,-1,-1,-1,-1,-1,-1,-1,-1,-1,-1,-1,-1,-1,-1,-1,-1,-1,-1,-1,-1],"loss_changes":[1.0449378E4,1.0516504E3,1.5744678E3,1.4940137E2,3.547395E2,4.7817358E2,3.975503E2,2.3901367E0,1.88125E1,1.05828E2,1.1629346E2,5.2641296E1,2.4485275E1,2.0656445E2,1.0285333E2,0E0,1.0996033E1,2.2612305E0,1.624585E1,3.0376968E1,1.6034733E1,1.4359619E1,1.3307404E1,3.736084E1,2.0707996E1,1.9975964E1,3.949997E0,2.3256714E1,5.0475098E1,2.4458405E1,1.132605E1,0E0,0E0,0E0,0E0,0E0,0E0,0E0,0E0,0E0,0E0,0E0,0E0,0E0,0E0,0E0,0E0,0E0,0E0,0E0,0E0,0E0,0E0,0E0,0E0,0E0,0E0,0E0,0E0,0E0,0E0],"parents":[2147483647,0,0,1,1,2,2,3,3,4,4,5,5,6,6,7,7,8,8,9,9,10,10,11,11,12,12,13,13,14,14,16,16,17,17,18,18,19,19,20,20,21,21,22,22,23,23,24,24,25,25,26,26,27,27,28,28,29,29,30,30],"right_children":[2,4,6,8,10,12,14,16,18,20,22,24,26,28,30,-1,32,34,36,38,40,42,44,46,48,50,52,54,56,58,60,-1,-1,-1,-1,-1,-1,-1,-1,-1,-1,-1,-1,-1,-1,-1,-1,-1,-1,-1,-1,-1,-1,-1,-1,-1,-1,-1,-1,-1,-1],"split_conditions":[8.9E0,3.3E0,1.22E1,-5E-1,3E-1,5E-1,3E-1,-2.2E0,5E-1,6.7E0,6.7E0,4.3E0,1.5E1,1.44E1,1.56E1,-7.3256415E-1,2.2E0,2.2E0,9.9E0,4.5E0,5.3E0,5.6E0,7.8E0,3.9E0,6.6E0,1E1,3.43E1,1.2E0,4.8E0,1.33E1,1.1E0,-6.522115E-1,-4.167807E-1,-4.0494847E-1,-3.0247468E-1,-5.143832E-1,-2.8619763E-1,-1.2498263E-1,-2.7402225E-1,2.3568962E-2,-1.6253872E-1,-3.6538744E-1,-2.7902117E-1,-2.2836272E-1,-1.4863144E-1,2.3082311E-1,4.701448E-1,9.387043E-2,-2.4763022E-1,-8.70246E-2,1.577454E-2,-1.7003779E-1,-1.4222336E-2,5.090561E-2,4.2325568E-1,6.221943E-1,-4.7164824E-2,9.7972296E-2,2.3750253E-1,7.231369E-2,5.0789994E-1],"split_indices":[1,1,1,1,0,0,0,1,0,1,1,2,0,1,1,0,2,1,0,2,2,1,1,2,2,1,0,2,2,1,2,0,0,0,0,0,0,0,0,0,0,0,0,0,0,0,0,0,0,0,0,0,0,0,0,0,0,0,0,0,0],"split_type":[0,0,0,0,0,0,0,0,0,0,0,0,0,0,0,0,0,0,0,0,0,0,0,0,0,0,0,0,0,0,0,0,0,0,0,0,0,0,0,0,0,0,0,0,0,0,0,0,0,0,0,0,0,0,0,0,0,0,0,0,0],"sum_hessian":[1.168E3,5.98E2,5.7E2,1.82E2,4.16E2,2.59E2,3.11E2,5E1,1.32E2,1.63E2,2.53E2,1.65E2,9.4E1,2.34E2,7.7E1,2.3E1,2.7E1,7.6E1,5.6E1,9.7E1,6.6E1,1.46E2,1.07E2,1.46E2,1.9E1,7.5E1,1.9E1,1.13E2,1.21E2,6.2E1,1.5E1,1.3E1,1.4E1,5.5E1,2.1E1,4.8E1,8E0,8E1,1.7E1,6.2E1,4E0,9.3E1,5.3E1,6E1,4.7E1,1.39E2,7E0,1.8E1,1E0,3.3E1,4.2E1,1.7E1,2E0,2E0,1.11E2,1.2E2,1E0,2.1E1,4.1E1,1E0,1.4E1],"tree_param":{"num_deleted":"0","num_feature":"3","num_nodes":"61","size_leaf_vector":"1"}},{"base_weights":[-4.661514E-3,-2.6365814E0,2.7563276E0,-4.448068E0,-1.8352898E0,1.1081493E0,4.120975E0,-5.852538E0,-3.8760676E0,-7.926375E-1,-2.501273E0,2.0290916E0,-5.12741E-1,4.705472E0,2.3071573E0,-7.395115E-1,-5.2959317E-1,-3.4375513E0,-4.4004483E0,-1.5365772E0,-6.583097E-2,-3.0297036E0,-1.7588602E0,2.213527E0,5.720373E-1,-1.3431272E-1,-1.129212E0,3.7586868E0,5.551604E0,1.7382525E0,4.403022E0,-3.9992893E-1,-3.0905756E-1,-4.639946E-1,-2.6075783E-1,-2.258247E-1,-9.0905815E-2,-1.6433977E-1,2.4616575E-2,-3.409617E-1,-2.649913E-1,-2.0590079E-1,-1.3407798E-1,2.0790564E-1,4.2900714E-1,8.497747E-2,-2.3524871E-1,6.8348005E-2,-5.6029614E-2,-7.8885846E-2,-1.5531164E-1,4.7511928E-2,3.81308E-1,5.2416694E-1,8.20261E-1,8.862034E-2,2.1431771E-1,4.7324E-1,1.3982506E-1],"categories":[],"categories_nodes":[],"categories_segments":[],"categories_sizes":[],"default_left":[0,0,0,0,0,0,0,0,0,0,0,0,0,0,0,0,0,0,0,0,0,0,0,0,0,0,0,0,0,0,0,0,0,0,0,0,0,0,0,0,0,0,0,0,0,0,0,0,0,0,0,0,0,0,0,0,0,0,0],"id":7,"left_children":[1,3,5,7,9,11,13,15,17,19,21,23,25,27,29,-1,-1,31,33,35,37,39,41,43,45,47,49,51,53,55,57,-1,-1,-1,-1,-1,-1,-1,-1,-1,-1,-1,-1,-1,-1,-1,-1,-1,-1,-1,-1,-1,-1,-1,-1,-1,-1,-1,-1],"loss_changes":[8.502043E3,8.6130225E2,1.2797163E3,1.2432959E2,2.875775E2,3.891545E2,3.19917E2,4.625122E0,1.5456421E1,8.857368E1,9.431897E1,4.3343384E1,2.201089E1,1.6739307E2,8.534949E1,0E0,0E0,2.6479492E0,1.2376221E1,3.4628906E1,4.174898E1,1.2175049E1,1.0791809E1,3.2128113E1,1.8244083E1,2.128492E1,3.9687958E0,1.8549194E1,5.7244385E1,1.98367E1,9.218231E0,0E0,0E0,0E0,0E0,0E0,0E0,0E0,0E0,0E0,0E0,0E0,0E0,0E0,0E0,0E0,0E0,0E0,0E0,0E0,0E0,0E0,0E0,0E0,0E0,0E0,0E0,0E0,0E0],"parents":[2147483647,0,0,1,1,2,2,3,3,4,4,5,5,6,6,7,7,8,8,9,9,10,10,11,11,12,12,13,13,14,14,17,17,18,18,19,19,20,20,21,21,22,22,23,23,24,24,25,25,26,26,27,27,28,28,29,29,30,30],"right_children":[2,4,6,8,10,12,14,16,18,20,22,24,26,28,30,-1,-1,32,34,36,38,40,42,44,46,48,50,52,54,56,58,-1,-1,-1,-1,-1,-1,-1,-1,-1,-1,-1,-1,-1,-1,-1,-1,-1,-1,-1,-1,-1,-1,-1,-1,-1,-1,-1,-1],"split_conditions":[8.9E0,3.3E0,1.22E1,-5E-1,3E-1,5E-1,3E-1,-3.9E0,5E-1,6.1E0,6.7E0,4.3E0,4.1E0,1.44E1,1.56E1,-7.395115E-1,-5.2959317E-1,2.1E0,9.9E0,2.6E0,1.6E0,5E0,7.8E0,3.9E0,6.6E0,2.3E0,5.4E0,1.2E0,1.78E1,1.33E1,1.3E1,-3.9992893E-1,-3.0905756E-1,-4.639946E-1,-2.6075783E-1,-2.258247E-1,-9.0905815E-2,-1.6433977E-1,2.4616575E-2,-3.409617E-1,-2.649913E-1,-2.0590079E-1,-1.3407798E-1,2.0790564E-1,4.2900714E-1,8.497747E-2,-2.3524871E-1,6.8348005E-2,-5.6029614E-2,-7.8885846E-2,-1.5531164E-1,4.7511928E-2,3.81308E-1,5.2416694E-1,8.20261E-1,8.862034E-2,2.1431771E-1,4.7324E-1,1.3982506E-1],"split_indices":[1,1,1,1,0,0,0,1,0,1,1,2,2,1,1,0,0,2,0,2,2,1,1,2,2,0,2,2,1,1,0,0,0,0,0,0,0,0,0,0,0,0,0,0,0,0,0,0,0,0,0,0,0,0,0,0,0,0,0],"split_type":[0,0,0,0,0,0,0,0,0,0,0,0,0,0,0,0,0,0,0,0,0,0,0,0,0,0,0,0,0,0,0,0,0,0,0,0,0,0,0,0,0,0,0,0,0,0,0,0,0,0,0,0,0,0,0,0,0,0,0],"sum_hessian":[1.168E3,5.98E2,5.7E2,1.82E2,4.16E2,2.59E2,3.11E2,5E1,1.32E2,1.63E2,2.53E2,1.65E2,9.4E1,2.34E2,7.7E1,1E1,4E1,7.6E1,5.6E1,8E1,8.3E1,1.46E2,1.07E2,1.46E2,1.9E1,5.9E1,3.5E1,1.13E2,1.21E2,6.2E1,1.5E1,2.5E1,5.1E1,4.8E1,8E0,3.6E1,4.4E1,1.3E1,7E1,6.9E1,7.7E1,6E1,4.7E1,1.39E2,7E0,1.8E1,1E0,2E1,3.9E1,2.1E1,1.4E1,2E0,1.11E2,1.11E2,1E1,2.1E1,4.1E1,1.3E1,2E0],"tree_param":{"num_deleted":"0","num_feature":"3","num_nodes":"59","size_leaf_vector":"1"}},{"base_weights":[-5.1798797E-3,-2.2176623E0,2.6757395E0,-3.621923E0,-1.2622544E0,1.6980667E0,4.3015556E0,-4.769421E0,-2.9719722E0,-2.1204488E-1,-1.901197E0,2.2905817E0,-3.628255E-1,4.6881847E0,2.298751E0,-6.028608E0,-4.262321E-1,-2.4538827E0,-3.4981437E0,-6.7476666E-1,5.658178E-1,-2.3014996E0,-9.648762E-1,1.6470441E0,2.911549E0,-6.570354E-1,8.578166E-1,4.3925433E0,7.807032E-1,1.5184407E0,2.9080026E0,-1.6975167E-1,-6.143111E-1,-3.2667345E-1,-1.9310614E-1,-3.640394E-1,-1.9556563E-1,-3.5543058E-2,-2.0626946E-1,2.383453E-1,4.151186E-2,-3.262545E-1,-2.1625714E-1,-5.0403662E-2,-1.3122623E-1,1.8566029E-1,2.5162056E-2,3.4346658E-1,2.456038E-1,-3.8502604E-2,-1.3384113E-1,-3.8928572E-2,1.5202963E-1,4.5267278E-1,2.021034E-1,3.3365313E-2,1.9842978E-1,3.1892583E-1,4.3863807E-2],"categories":[],"categories_nodes":[],"categories_segments":[],"categories_sizes":[],"default_left":[0,0,0,0,0,0,0,0,0,0,0,0,0,0,0,0,0,0,0,0,0,0,0,0,0,0,0,0,0,0,0,0,0,0,0,0,0,0,0,0,0,0,0,0,0,0,0,0,0,0,0,0,0,0,0,0,0,0,0],"id":8,"left_children":[1,3,5,7,9,11,13,15,17,19,21,23,25,27,29,31,-1,33,35,37,39,41,43,45,47,49,51,53,-1,55,57,-1,-1,-1,-1,-1,-1,-1,-1,-1,-1,-1,-1,-1,-1,-1,-1,-1,-1,-1,-1,-1,-1,-1,-1,-1,-1,-1,-1],"loss_changes":[6.9398423E3,8.554204E2,8.335498E2,1.7899194E2,2.5659888E2,4.0623938E2,1.4254297E2,3.3049316E1,3.72135E1,5.293216E1,8.6984436E1,9.830554E1,2.7497993E1,1.1784717E2,1.1748154E1,1.4741821E0,0E0,3.10896E1,1.0653503E1,4.0042683E1,1.4075972E1,1.5108276E1,1.1025085E1,3.72554E1,2.2541382E1,1.0790453E1,1.29845295E1,3.953882E1,0E0,8.72094E0,1.1102478E1,0E0,0E0,0E0,0E0,0E0,0E0,0E0,0E0,0E0,0E0,0E0,0E0,0E0,0E0,0E0,0E0,0E0,0E0,0E0,0E0,0E0,0E0,0E0,0E0,0E0,0E0,0E0,0E0],"parents":[2147483647,0,0,1,1,2,2,3,3,4,4,5,5,6,6,7,7,8,8,9,9,10,10,11,11,12,12,13,13,14,14,15,15,17,17,18,18,19,19,20,20,21,21,22,22,23,23,24,24,25,25,26,26,27,27,29,29,30,30],"right_children":[2,4,6,8,10,12,14,16,18,20,22,24,26,28,30,32,-1,34,36,38,40,42,44,46,48,50,52,54,-1,56,58,-1,-1,-1,-1,-1,-1,-1,-1,-1,-1,-1,-1,-1,-1,-1,-1,-1,-1,-1,-1,-1,-1,-1,-1,-1,-1,-1,-1],"split_conditions":[9.4E0,4.4E0,1.39E1,1.1E0,3E-1,2E0,8E-1,-2.2E0,5E-1,7.8E0,7.8E0,1.17E1,1.28E1,1.78E1,1.5E1,1.3E0,-4.262321E-1,2.1E0,1.37E1,4.5E0,1.4E0,1.8E0,4.3E0,4.3E0,2.6E0,1.5E1,3.5E0,3E-1,7.807032E-1,2.6E0,2.18E1,-1.6975167E-1,-6.143111E-1,-3.2667345E-1,-1.9310614E-1,-3.640394E-1,-1.9556563E-1,-3.5543058E-2,-2.0626946E-1,2.383453E-1,4.151186E-2,-3.262545E-1,-2.1625714E-1,-5.0403662E-2,-1.3122623E-1,1.8566029E-1,2.5162056E-2,3.4346658E-1,2.456038E-1,-3.8502604E-2,-1.3384113E-1,-3.8928572E-2,1.5202963E-1,4.5267278E-1,2.021034E-1,3.3365313E-2,1.9842978E-1,3.1892583E-1,4.3863807E-2],"split_indices":[1,1,1,1,0,0,0,1,0,1,1,1,1,1,1,2,0,2,0,2,2,2,0,2,2,0,2,0,0,2,0,0,0,0,0,0,0,0,0,0,0,0,0,0,0,0,0,0,0,0,0,0,0,0,0,0,0,0,0],"split_type":[0,0,0,0,0,0,0,0,0,0,0,0,0,0,0,0,0,0,0,0,0,0,0,0,0,0,0,0,0,0,0,0,0,0,0,0,0,0,0,0,0,0,0,0,0,0,0,0,0,0,0,0,0,0,0,0,0,0,0],"sum_hessian":[1.168E3,6.4E2,5.28E2,2.58E2,3.82E2,3.31E2,1.97E2,9.1E1,1.67E2,1.45E2,2.37E2,2.57E2,7.4E1,1.64E2,3.3E1,2.3E1,6.8E1,8.7E1,8E1,9.1E1,5.4E1,1.65E2,7.2E1,1.28E2,1.29E2,6E1,1.4E1,1.52E2,1.2E1,1.6E1,1.7E1,1E0,2.2E1,3.2E1,5.5E1,7.2E1,8E0,7.5E1,1.6E1,3E0,5.1E1,1.8E1,1.47E2,3.2E1,4E1,1.11E2,1.7E1,5.7E1,7.2E1,4.4E1,1.6E1,5E0,9E0,1.43E2,9E0,5E0,1.1E1,1.5E1,2E0],"tree_param":{"num_deleted":"0","num_feature":"3","num_nodes":"59","size_leaf_vector":"1"}},{"base_weights":[-4.837128E-3,-2.0005383E0,2.4134035E0,-3.1142488E0,-1.0177499E0,1.221229E0,3.5018055E0,-4.305634E0,-2.5749104E0,-1.44203E-1,-1.629819E0,1.9983132E0,-1.6883594E-1,2.948568E0,4.8440742E0,-5.458416E0,-3.8422662E-1,-2.1441777E0,-3.1315818E0,-6.005496E-1,4.8947975E-1,-1.9622293E0,-9.508076E-1,2.7593508E0,1.5282005E0,6.472088E-1,-5.9415716E-1,3.3311536E0,1.2500191E0,1.7431352E0,5.0750675E0,-1.6126406E-1,-5.5555093E-1,-3.0575296E-1,-1.6891788E-1,-3.2068837E-1,-1.22513644E-1,-2.6242694E-2,-2.0000362E-1,2.2046934E-1,3.6052655E-2,-2.875532E-1,-1.8317145E-1,-5.7504382E-2,-1.1842363E-1,2.0741084E-1,3.729345E-1,1.5872504E-1,-2.2474436E-1,1.2480592E-1,4.36315E-3,-3.4737915E-2,-1.21244274E-1,6.0917046E-2,3.3789814E-1,-2.154243E-2,1.5878747E-1,3.6046344E-3,2.4187616E-1,5.171568E-1,-9.364853E-2],"categories":[],"categories_nodes":[],"categories_segments":[],"categories_sizes":[],"default_left":[0,0,0,0,0,0,0,0,0,0,0,0,0,0,0,0,0,0,0,0,0,0,0,0,0,0,0,0,0,0,0,0,0,0,0,0,0,0,0,0,0,0,0,0,0,0,0,0,0,0,0,0,0,0,0,0,0,0,0,0,0],"id":9,"left_children":[1,3,5,7,9,11,13,15,17,19,21,23,25,27,29,31,-1,33,35,37,39,41,43,45,47,49,51,53,55,57,59,-1,-1,-1,-1,-1,-1,-1,-1,-1,-1,-1,-1,-1,-1,-1,-1,-1,-1,-1,-1,-1,-1,-1,-1,-1,-1,-1,-1,-1,-1],"loss_changes":[5.6465225E3,6.984319E2,6.8213525E2,1.816814E2,1.8262247E2,2.7470752E2,1.9067285E2,2.8170166E1,4.339856E1,4.135737E1,4.3502014E1,5.410022E1,3.231601E1,1.24504395E2,4.7740845E1,2.5634766E-3,0E0,4.511975E1,8.8479E0,3.8750587E1,1.2476089E1,1.0705627E1,5.2835617E0,3.2810486E1,2.653125E1,1.1550654E1,8.88616E0,1.8901733E1,1.9156185E1,7.986292E0,4.719165E1,0E0,0E0,0E0,0E0,0E0,0E0,0E0,0E0,0E0,0E0,0E0,0E0,0E0,0E0,0E0,0E0,0E0,0E0,0E0,0E0,0E0,0E0,0E0,0E0,0E0,0E0,0E0,0E0,0E0,0E0],"parents":[2147483647,0,0,1,1,2,2,3,3,4,4,5,5,6,6,7,7,8,8,9,9,10,10,11,11,12,12,13,13,14,14,15,15,17,17,18,18,19,19,20,20,21,21,22,22,23,23,24,24,25,25,26,26,27,27,28,28,29,29,30,30],"right_children":[2,4,6,8,10,12,14,16,18,20,22,24,26,28,30,32,-1,34,36,38,40,42,44,46,48,50,52,54,56,58,60,-1,-1,-1,-1,-1,-1,-1,-1,-1,-1,-1,-1,-1,-1,-1,-1,-1,-1,-1,-1,-1,-1,-1,-1,-1,-1,-1,-1,-1,-1],"split_conditions":[9.4E0,5E0,1.28E1,1.1E0,5E-1,3E-1,1.56E1,-2.2E0,1.5E0,7.8E0,7.8E0,2.6E0,2E0,1.8E0,1.6E0,1.3E0,-3.8422662E-1,2.1E0,2.31E1,4.5E0,1.4E0,1.8E0,4.3E0,1.17E1,6.6E0,3.2E0,1.5E1,1.2E0,2.3E0,3E-1,4.8E0,-1.6126406E-1,-5.5555093E-1,-3.0575296E-1,-1.6891788E-1,-3.2068837E-1,-1.22513644E-1,-2.6242694E-2,-2.0000362E-1,2.2046934E-1,3.6052655E-2,-2.875532E-1,-1.8317145E-1,-5.7504382E-2,-1.1842363E-1,2.0741084E-1,3.729345E-1,1.5872504E-1,-2.2474436E-1,1.2480592E-1,4.36315E-3,-3.4737915E-2,-1.21244274E-1,6.0917046E-2,3.3789814E-1,-2.154243E-2,1.5878747E-1,3.6046344E-3,2.4187616E-1,5.171568E-1,-9.364853E-2],"split_indices":[1,1,1,1,0,0,1,1,0,1,1,2,0,0,2,2,0,2,0,2,2,2,0,1,2,2,0,2,2,0,2,0,0,0,0,0,0,0,0,0,0,0,0,0,0,0,0,0,0,0,0,0,0,0,0,0,0,0,0,0,0],"split_type":[0,0,0,0,0,0,0,0,0,0,0,0,0,0,0,0,0,0,0,0,0,0,0,0,0,0,0,0,0,0,0,0,0,0,0,0,0,0,0,0,0,0,0,0,0,0,0,0,0,0,0,0,0,0,0,0,0,0,0,0,0],"sum_hessian":[1.168E3,6.4E2,5.28E2,2.99E2,3.41E2,2.53E2,2.75E2,9.1E1,2.08E2,1.41E2,2E2,1.62E2,9.1E1,1.97E2,7.8E1,2.3E1,6.8E1,1.2E2,8.8E1,8.2E1,5.9E1,1.33E2,6.7E1,6E1,1.02E2,3.1E1,6E1,1.6E2,3.7E1,6E0,7.2E1,1E0,2.2E1,3.8E1,8.2E1,8.4E1,4E0,6.7E1,1.5E1,3E0,5.6E1,1.4E1,1.19E2,2.7E1,4E1,3.7E1,2.3E1,1.01E2,1E0,1.5E1,1.6E1,4.4E1,1.6E1,3E0,1.57E2,7E0,3E1,2E0,4E0,7.1E1,1E0],"tree_param":{"num_deleted":"0","num_feature":"3","num_nodes":"61","size_leaf_vector":"1"}},{"base_weights":[-5.1599606E-3,-1.9415476E0,2.026191E0,-3.298424E0,-1.3414278E0,8.109433E-1,3.0324032E0,-4.351965E0,-2.8696344E0,-5.5733585E-1,-1.8424108E0,1.4929278E0,-3.8927114E-1,2.568492E0,4.368135E0,-5.659321E0,-3.8950655E0,-2.520603E0,-3.2907887E0,-9.944919E-1,9.040488E-2,-2.2435668E0,-1.2793336E0,2.0355947E0,1.1582775E0,-9.1654554E-2,-8.7448573E-1,3.037612E0,1.2469499E0,3.898402E0,6.2705817E0,-5.9037274E-1,-1.6076265E-1,-4.4869158E-1,-3.1177366E-1,-2.3960984E-1,-3.8342512E-1,-4.444835E-1,-2.884269E-1,-2.2753532E-1,-7.8930944E-2,-3.699657E-2,6.7052744E-2,-2.4490122E-1,-1.8443915E-1,-1.351334E-1,-3.371812E-2,1.7426595E-1,2.7688676E-1,3.5252035E-2,1.539168E-1,-5.9019912E-2,2.8131155E-2,-5.7668168E-2,-1.252966E-1,1.3745372E-2,3.0709228E-1,5.529354E-2,1.580792E-1,3.9857516E-1,-8.896609E-2,6.609008E-1,9.35524E-2],"categories":[],"categories_nodes":[],"categories_segments":[],"categories_sizes":[],"default_left":[0,0,0,0,0,0,0,0,0,0,0,0,0,0,0,0,0,0,0,0,0,0,0,0,0,0,0,0,0,0,0,0,0,0,0,0,0,0,0,0,0,0,0,0,0,0,0,0,0,0,0,0,0,0,0,0,0,0,0,0,0,0,0],"id":10,"left_children":[1,3,5,7,9,11,13,15,17,19,21,23,25,27,29,31,33,35,37,39,41,43,45,47,49,51,53,55,57,59,61,-1,-1,-1,-1,-1,-1,-1,-1,-1,-1,-1,-1,-1,-1,-1,-1,-1,-1,-1,-1,-1,-1,-1,-1,-1,-1,-1,-1,-1,-1,-1,-1],"loss_changes":[4.602175E3,4.8333423E2,6.9575806E2,7.01814E1,1.6277771E2,2.1339833E2,1.8211499E2,8.420288E0,1.1255737E1,4.652876E1,5.4503723E1,2.7788422E1,1.3638603E1,1.4128345E2,4.6152466E1,1.401886E0,4.873535E0,3.4065247E0,1.39210205E1,2.3959457E1,1.8141851E1,7.53833E0,6.87059E0,8.492523E0,3.168245E1,1.1322444E1,3.335102E0,1.6194336E1,1.3722473E1,3.1149597E1,1.9094421E1,0E0,0E0,0E0,0E0,0E0,0E0,0E0,0E0,0E0,0E0,0E0,0E0,0E0,0E0,0E0,0E0,0E0,0E0,0E0,0E0,0E0,0E0,0E0,0E0,0E0,0E0,0E0,0E0,0E0,0E0,0E0,0E0],"parents":[2147483647,0,0,1,1,2,2,3,3,4,4,5,5,6,6,7,7,8,8,9,9,10,10,11,11,12,12,13,13,14,14,15,15,16,16,17,17,18,18,19,19,20,20,21,21,22,22,23,23,24,24,25,25,26,26,27,27,28,28,29,29,30,30],"right_children":[2,4,6,8,10,12,14,16,18,20,22,24,26,28,30,32,34,36,38,40,42,44,46,48,50,52,54,56,58,60,62,-1,-1,-1,-1,-1,-1,-1,-1,-1,-1,-1,-1,-1,-1,-1,-1,-1,-1,-1,-1,-1,-1,-1,-1,-1,-1,-1,-1,-1,-1,-1,-1],"split_conditions":[8.9E0,3.3E0,1.22E1,-5E-1,3E-1,5E-1,1.56E1,-3.9E0,5E-1,6.7E0,6.7E0,2.6E0,4.1E0,3E-1,1.78E1,3E-1,2.2E0,5.4E0,1.1E0,1.6E0,2.9E0,5.6E0,1.98E1,1.17E1,3E0,1E1,5.4E0,1.2E0,1.33E1,4.8E0,8E-1,-5.9037274E-1,-1.6076265E-1,-4.4869158E-1,-3.1177366E-1,-2.3960984E-1,-3.8342512E-1,-4.444835E-1,-2.884269E-1,-2.2753532E-1,-7.8930944E-2,-3.699657E-2,6.7052744E-2,-2.4490122E-1,-1.8443915E-1,-1.351334E-1,-3.371812E-2,1.7426595E-1,2.7688676E-1,3.5252035E-2,1.539168E-1,-5.9019912E-2,2.8131155E-2,-5.7668168E-2,-1.252966E-1,1.3745372E-2,3.0709228E-1,5.529354E-2,1.580792E-1,3.9857516E-1,-8.896609E-2,6.609008E-1,9.35524E-2],"split_indices":[1,1,1,1,0,0,1,1,0,1,1,2,2,0,1,0,2,2,1,2,2,1,0,1,2,1,2,2,1,2,0,0,0,0,0,0,0,0,0,0,0,0,0,0,0,0,0,0,0,0,0,0,0,0,0,0,0,0,0,0,0,0,0],"split_type":[0,0,0,0,0,0,0,0,0,0,0,0,0,0,0,0,0,0,0,0,0,0,0,0,0,0,0,0,0,0,0,0,0,0,0,0,0,0,0,0,0,0,0,0,0,0,0,0,0,0,0,0,0,0,0,0,0,0,0,0,0,0,0],"sum_hessian":[1.168E3,5.98E2,5.7E2,1.82E2,4.16E2,2.59E2,3.11E2,5E1,1.32E2,1.63E2,2.53E2,1.65E2,9.4E1,2.33E2,7.8E1,1E1,4E1,7.6E1,5.6E1,9.7E1,6.6E1,1.46E2,1.07E2,6.1E1,1.04E2,5.9E1,3.5E1,1.71E2,6.2E1,6.5E1,1.3E1,9E0,1E0,2E1,2E1,7.2E1,4E0,1.2E1,4.4E1,1.2E1,8.5E1,3.7E1,2.9E1,9.3E1,5.3E1,9.9E1,8E0,4.6E1,1.5E1,3.4E1,7E1,2.5E1,3.4E1,2.1E1,1.4E1,2E0,1.69E2,2.1E1,4.1E1,6.4E1,1E0,1.2E1,1E0],"tree_param":{"num_deleted":"0","num_feature":"3","num_nodes":"63","size_leaf_vector":"1"}},{"base_weights":[-6.113138E-3,-1.75364E0,1.8271176E0,-2.9842513E0,-1.2093823E0,7.3148894E-1,2.7342854E0,-3.946408E0,-2.592866E0,-5.032877E-1,-1.6605246E0,1.3474921E0,-3.525953E-1,2.0283027E0,3.454697E0,-5.161674E0,-3.5241072E0,-2.2766342E0,-2.9745674E0,-9.9081284E-1,-2.7182635E-2,-2.0221307E0,-1.1529634E0,1.4901694E0,2.3143883E-1,-8.3004065E-2,-7.9211974E-1,2.3323412E0,5.1167923E-1,3.2057488E0,5.697414E0,-5.3723925E-1,-1.527245E-1,-4.536488E-1,-3.0511943E-1,-2.8498486E-1,-2.0397218E-1,-4.0345415E-1,-2.6022512E-1,-1.582544E-1,-4.8226032E-2,-1.4525189E-1,2.5425244E-2,-2.6302394E-1,-1.8940616E-1,-7.2157554E-2,-1.3096309E-1,1.3660784E-1,3.4754926E-1,4.7646504E-2,-2.2120295E-1,4.927042E-2,-3.831758E-2,-5.216352E-2,-1.13602236E-1,2.508868E-1,1.5807642E-1,-1.3703361E-2,1.0067785E-1,3.525179E-1,1.8615447E-1,5.9989464E-1,8.887482E-2],"categories":[],"categories_nodes":[],"categories_segments":[],"categories_sizes":[],"default_left":[0,0,0,0,0,0,0,0,0,0,0,0,0,0,0,0,0,0,0,0,0,0,0,0,0,0,0,0,0,0,0,0,0,0,0,0,0,0,0,0,0,0,0,0,0,0,0,0,0,0,0,0,0,0,0,0,0,0,0,0,0,0,0],"id":11,"left_children":[1,3,5,7,9,11,13,15,17,19,21,23,25,27,29,31,33,35,37,39,41,43,45,47,49,51,53,55,57,59,61,-1,-1,-1,-1,-1,-1,-1,-1,-1,-1,-1,-1,-1,-1,-1,-1,-1,-1,-1,-1,-1,-1,-1,-1,-1,-1,-1,-1,-1,-1,-1,-1],"loss_changes":[3.748236E3,3.9758313E2,5.6552783E2,5.8680542E1,1.3199927E2,1.7410294E2,1.516753E2,7.9833374E0,9.281921E0,3.8039627E1,4.4286987E1,2.6088226E1,1.1190984E1,7.258453E1,6.715857E1,2.1929932E-1,5.7877502E0,4.643799E0,1.1995911E1,2.3611832E1,3.4065033E1,6.4665527E0,6.354126E0,3.1467285E1,1.302823E1,1.0557473E1,2.7561436E0,1.3679626E1,9.130923E0,5.3550903E1,1.4968018E1,0E0,0E0,0E0,0E0,0E0,0E0,0E0,0E0,0E0,0E0,0E0,0E0,0E0,0E0,0E0,0E0,0E0,0E0,0E0,0E0,0E0,0E0,0E0,0E0,0E0,0E0,0E0,0E0,0E0,0E0,0E0,0E0],"parents":[2147483647,0,0,1,1,2,2,3,3,4,4,5,5,6,6,7,7,8,8,9,9,10,10,11,11,12,12,13,13,14,14,15,15,16,16,17,17,18,18,19,19,20,20,21,21,22,22,23,23,24,24,25,25,26,26,27,27,28,28,29,29,30,30],"right_children":[2,4,6,8,10,12,14,16,18,20,22,24,26,28,30,32,34,36,38,40,42,44,46,48,50,52,54,56,58,60,62,-1,-1,-1,-1,-1,-1,-1,-1,-1,-1,-1,-1,-1,-1,-1,-1,-1,-1,-1,-1,-1,-1,-1,-1,-1,-1,-1,-1,-1,-1,-1,-1],"split_conditions":[8.9E0,3.3E0,1.22E1,-5E-1,3E-1,5E-1,1.44E1,-3.9E0,5E-1,6.1E0,6.7E0,4.3E0,4.1E0,2E0,1.78E1,3E-1,1.7E0,1.8E0,1.1E0,2.6E0,1.6E0,2.2E0,7.2E0,3.9E0,6.6E0,2.3E0,5.4E0,3.6E0,3.5E0,3E-1,8E-1,-5.3723925E-1,-1.527245E-1,-4.536488E-1,-3.0511943E-1,-2.8498486E-1,-2.0397218E-1,-4.0345415E-1,-2.6022512E-1,-1.582544E-1,-4.8226032E-2,-1.4525189E-1,2.5425244E-2,-2.6302394E-1,-1.8940616E-1,-7.2157554E-2,-1.3096309E-1,1.3660784E-1,3.4754926E-1,4.7646504E-2,-2.2120295E-1,4.927042E-2,-3.831758E-2,-5.216352E-2,-1.13602236E-1,2.508868E-1,1.5807642E-1,-1.3703361E-2,1.0067785E-1,3.525179E-1,1.8615447E-1,5.9989464E-1,8.887482E-2],"split_indices":[1,1,1,1,0,0,1,1,0,1,1,2,2,0,1,0,2,2,1,2,2,2,1,2,2,0,2,2,2,0,0,0,0,0,0,0,0,0,0,0,0,0,0,0,0,0,0,0,0,0,0,0,0,0,0,0,0,0,0,0,0,0,0],"split_type":[0,0,0,0,0,0,0,0,0,0,0,0,0,0,0,0,0,0,0,0,0,0,0,0,0,0,0,0,0,0,0,0,0,0,0,0,0,0,0,0,0,0,0,0,0,0,0,0,0,0,0,0,0,0,0,0,0,0,0,0,0,0,0],"sum_hessian":[1.168E3,5.98E2,5.7E2,1.82E2,4.16E2,2.59E2,3.11E2,5E1,1.32E2,1.63E2,2.53E2,1.65E2,9.4E1,1.59E2,1.52E2,1E1,4E1,7.6E1,5.6E1,8E1,8.3E1,1.46E2,1.07E2,1.46E2,1.9E1,5.9E1,3.5E1,1.32E2,2.7E1,1.39E2,1.3E1,9E0,1E0,1E1,3E1,1.9E1,5.7E1,1.2E1,4.4E1,3.6E1,4.4E1,1.3E1,7E1,2.2E1,1.24E2,3E1,7.7E1,1.39E2,7E0,1.8E1,1E0,2E1,3.9E1,2.1E1,1.4E1,1.05E2,2.7E1,1.2E1,1.5E1,1.11E2,2.8E1,1.2E1,1E0],"tree_param":{"num_deleted":"0","num_feature":"3","num_nodes":"63","size_leaf_vector":"1"}},{"base_weights":[-6.9595445E-3,-1.4756258E0,1.7726661E0,-2.4340565E0,-8.236435E-1,1.2222844E0,3.1172493E0,-3.4027088E0,-2.0713809E0,-1.259447E-1,-1.2481829E0,1.7467959E0,1.8829899E-1,2.8890212E0,5.1768694E0,-4.708231E-1,-3.1016333E0,-1.7115818E0,-2.4907682E0,-4.2801192E-1,3.816213E-1,-1.5253932E0,-6.0071576E-1,9.7804505E-1,2.0644636E0,-3.6170408E-1,7.615038E-1,3.1758082E0,1.6818085E0,5.445196E0,8.4431075E-2,-2.8430465E-1,-4.911978E-1,-2.7838656E-1,-1.5181488E-1,-2.7051792E-1,-1.5304832E-1,-1.5223165E-2,-1.6357349E-1,2.0527478E-1,2.4573423E-2,-2.2524221E-1,-1.4217518E-1,-3.2356244E-2,-9.091104E-2,1.1219974E-1,-2.8508103E-1,-6.823373E-2,2.1160403E-1,-9.498985E-2,-4.60183E-3,1.2095729E-1,3.1751458E-2,-4.670855E-2,3.246289E-1,1.8203394E-1,-1.2557347E-2,6.110569E-1,2.420466E-1],"categories":[],"categories_nodes":[],"categories_segments":[],"categories_sizes":[],"default_left":[0,0,0,0,0,0,0,0,0,0,0,0,0,0,0,0,0,0,0,0,0,0,0,0,0,0,0,0,0,0,0,0,0,0,0,0,0,0,0,0,0,0,0,0,0,0,0,0,0,0,0,0,0,0,0,0,0,0,0],"id":12,"left_children":[1,3,5,7,9,11,13,15,17,19,21,23,25,27,29,-1,31,33,35,37,39,41,43,45,47,49,51,53,55,57,-1,-1,-1,-1,-1,-1,-1,-1,-1,-1,-1,-1,-1,-1,-1,-1,-1,-1,-1,-1,-1,-1,-1,-1,-1,-1,-1,-1,-1],"loss_changes":[3.058003E3,3.985432E2,3.876676E2,8.3940186E1,1.1328766E2,2.041322E2,5.6963623E1,1.2517944E1,2.45578E1,2.254792E1,4.1800995E1,5.9032776E1,4.0629284E1,4.3128662E1,1.1678131E1,0E0,1.3654785E1,1.7759705E1,1.3566772E1,3.0393078E1,1.1985214E1,9.305786E0,5.945347E0,4.453656E1,2.6377869E1,1.2211471E1,1.2149029E1,3.0272705E1,7.4895706E0,1.1373016E1,0E0,0E0,0E0,0E0,0E0,0E0,0E0,0E0,0E0,0E0,0E0,0E0,0E0,0E0,0E0,0E0,0E0,0E0,0E0,0E0,0E0,0E0,0E0,0E0,0E0,0E0,0E0,0E0,0E0],"parents":[2147483647,0,0,1,1,2,2,3,3,4,4,5,5,6,6,7,7,8,8,9,9,10,10,11,11,12,12,13,13,14,14,16,16,17,17,18,18,19,19,20,20,21,21,22,22,23,23,24,24,25,25,26,26,27,27,28,28,29,29],"right_children":[2,4,6,8,10,12,14,16,18,20,22,24,26,28,30,-1,32,34,36,38,40,42,44,46,48,50,52,54,56,58,-1,-1,-1,-1,-1,-1,-1,-1,-1,-1,-1,-1,-1,-1,-1,-1,-1,-1,-1,-1,-1,-1,-1,-1,-1,-1,-1,-1,-1],"split_conditions":[9.4E0,4.4E0,1.44E1,6E-1,3E-1,3E-1,1.78E1,-3.9E0,8E-1,7.8E0,7.8E0,1.11E1,1.17E1,3E-1,8E-1,-4.708231E-1,5.3E0,1.4E0,9.9E0,4.5E0,1.4E0,1.8E0,5.3E0,5.8E0,1.2E0,1E1,2.5E0,1.5E0,2.18E1,3.5E0,8.4431075E-2,-2.8430465E-1,-4.911978E-1,-2.7838656E-1,-1.5181488E-1,-2.7051792E-1,-1.5304832E-1,-1.5223165E-2,-1.6357349E-1,2.0527478E-1,2.4573423E-2,-2.2524221E-1,-1.4217518E-1,-3.2356244E-2,-9.091104E-2,1.1219974E-1,-2.8508103E-1,-6.823373E-2,2.1160403E-1,-9.498985E-2,-4.60183E-3,1.2095729E-1,3.1751458E-2,-4.670855E-2,3.246289E-1,1.8203394E-1,-1.2557347E-2,6.110569E-1,2.420466E-1],"split_indices":[1,1,1,1,0,0,1,1,0,1,1,1,1,0,0,0,0,2,0,2,2,2,0,2,2,1,0,2,0,2,0,0,0,0,0,0,0,0,0,0,0,0,0,0,0,0,0,0,0,0,0,0,0,0,0,0,0,0,0],"split_type":[0,0,0,0,0,0,0,0,0,0,0,0,0,0,0,0,0,0,0,0,0,0,0,0,0,0,0,0,0,0,0,0,0,0,0,0,0,0,0,0,0,0,0,0,0,0,0,0,0,0,0,0,0,0,0,0,0,0,0],"sum_hessian":[1.168E3,6.4E2,5.28E2,2.58E2,3.82E2,3.76E2,1.52E2,6.8E1,1.9E2,1.45E2,2.37E2,2.49E2,1.27E2,1.39E2,1.3E1,1E1,5.8E1,1.05E2,8.5E1,9.1E1,5.4E1,1.65E2,7.2E1,7.4E1,1.75E2,6.5E1,6.2E1,1.11E2,2.8E1,1.2E1,1E0,5.3E1,5E0,1.4E1,9.1E1,6.8E1,1.7E1,7.5E1,1.6E1,3E0,5.1E1,1.8E1,1.47E2,3.9E1,3.3E1,7.2E1,2E0,3E0,1.72E2,2.2E1,4.3E1,3E1,3.2E1,2E0,1.09E2,2.6E1,2E0,9E0,3E0],"tree_param":{"num_deleted":"0","num_feature":"3","num_nodes":"59","size_leaf_vector":"1"}},{"base_weights":[-7.2311847E-3,-1.4319178E0,1.4873301E0,-2.4505007E0,-9.8147976E-1,5.878399E-1,2.2321382E0,-3.737838E0,-2.2420845E0,-4.0351757E-1,-1.3507881E0,1.0875412E0,-2.915103E-1,1.8707525E0,3.2743165E0,-9.386861E-2,-3.8187277E-1,-3.2935154E0,-2.0856109E0,-2.6513535E-1,-1.9904854E0,-1.8200552E0,-1.0684161E0,1.6320364E0,8.177157E-1,-1.5431462E-1,-1.012933E0,2.217576E0,8.94175E-1,3.3466477E0,-1.18375115E-1,-8.654092E-2,-3.5282683E-1,3.1893827E-2,-2.1222399E-1,-7.983386E-2,2.247267E-2,-2.6259363E-1,9.576297E-3,-1.480975E-1,-2.014178E-1,-1.210738E-1,-7.08143E-2,5.154122E-2,1.7608768E-1,2.627699E-2,1.14229254E-1,3.2515132E-3,-7.656809E-2,-1.2876163E-1,-2.0604305E-2,2.3584561E-1,1.576402E-1,3.0373609E-2,1.1821627E-1,9.644868E-2,3.5317656E-1],"categories":[],"categories_nodes":[],"categories_segments":[],"categories_sizes":[],"default_left":[0,0,0,0,0,0,0,0,0,0,0,0,0,0,0,0,0,0,0,0,0,0,0,0,0,0,0,0,0,0,0,0,0,0,0,0,0,0,0,0,0,0,0,0,0,0,0,0,0,0,0,0,0,0,0,0,0],"id":13,"left_children":[1,3,5,7,9,11,13,15,17,19,21,23,25,27,29,-1,-1,31,33,35,37,39,41,43,45,47,49,51,53,55,-1,-1,-1,-1,-1,-1,-1,-1,-1,-1,-1,-1,-1,-1,-1,-1,-1,-1,-1,-1,-1,-1,-1,-1,-1,-1,-1],"loss_changes":[2.4912598E3,2.7242114E2,3.812279E2,4.0718628E1,8.8462036E1,1.14564285E2,1.1138257E2,1.8495789E0,1.9454407E1,3.548799E1,3.1712402E1,2.305397E1,9.246417E0,7.727289E1,2.9435669E1,0E0,0E0,7.776718E0,1.3183655E1,3.98812E1,1.7485672E1,3.2044373E0,7.3978577E0,6.861191E0,2.0053696E1,9.276831E0,3.0592833E0,1.18186035E1,1.0353401E1,3.0990112E1,0E0,0E0,0E0,0E0,0E0,0E0,0E0,0E0,0E0,0E0,0E0,0E0,0E0,0E0,0E0,0E0,0E0,0E0,0E0,0E0,0E0,0E0,0E0,0E0,0E0,0E0,0E0],"parents":[2147483647,0,0,1,1,2,2,3,3,4,4,5,5,6,6,7,7,8,8,9,9,10,10,11,11,12,12,13,13,14,14,17,17,18,18,19,19,20,20,21,21,22,22,23,23,24,24,25,25,26,26,27,27,28,28,29,29],"right_children":[2,4,6,8,10,12,14,16,18,20,22,24,26,28,30,-1,-1,32,34,36,38,40,42,44,46,48,50,52,54,56,-1,-1,-1,-1,-1,-1,-1,-1,-1,-1,-1,-1,-1,-1,-1,-1,-1,-1,-1,-1,-1,-1,-1,-1,-1,-1,-1],"split_conditions":[8.9E0,3.3E0,1.22E1,-2.2E0,3E-1,5E-1,1.56E1,1.3E0,1.4E0,5.3E0,5.6E0,2.5E0,5.4E0,3E-1,4.8E0,-9.386861E-2,-3.8187277E-1,6E-1,1.5E0,2.6E0,6.6E0,3.1E0,7.8E0,9.4E0,3E0,1.02E1,6.6E0,3.6E0,1.33E1,1.6E0,-1.18375115E-1,-8.654092E-2,-3.5282683E-1,3.1893827E-2,-2.1222399E-1,-7.983386E-2,2.247267E-2,-2.6259363E-1,9.576297E-3,-1.480975E-1,-2.014178E-1,-1.210738E-1,-7.08143E-2,5.154122E-2,1.7608768E-1,2.627699E-2,1.14229254E-1,3.2515132E-3,-7.656809E-2,-1.2876163E-1,-2.0604305E-2,2.3584561E-1,1.576402E-1,3.0373609E-2,1.1821627E-1,9.644868E-2,3.5317656E-1],"split_indices":[1,1,1,1,0,0,1,2,2,2,1,2,2,0,2,0,0,2,2,2,2,2,1,1,2,0,2,2,1,2,0,0,0,0,0,0,0,0,0,0,0,0,0,0,0,0,0,0,0,0,0,0,0,0,0,0,0],"split_type":[0,0,0,0,0,0,0,0,0,0,0,0,0,0,0,0,0,0,0,0,0,0,0,0,0,0,0,0,0,0,0,0,0,0,0,0,0,0,0,0,0,0,0,0,0,0,0,0,0,0,0,0,0,0,0,0,0],"sum_hessian":[1.168E3,5.98E2,5.7E2,1.82E2,4.16E2,2.59E2,3.11E2,2.3E1,1.59E2,1.63E2,2.53E2,1.65E2,9.4E1,2.33E2,7.8E1,1E0,2.2E1,1.8E1,1.41E2,1.51E2,1.2E1,9.3E1,1.6E2,5.3E1,1.12E2,8E1,1.4E1,1.71E2,6.2E1,7.7E1,1E0,2E0,1.6E1,2E0,1.39E2,7.2E1,7.9E1,9E0,3E0,3.7E1,5.6E1,1.13E2,4.7E1,6E0,4.7E1,4.2E1,7E1,6.2E1,1.8E1,1E1,4E0,1.38E2,3.3E1,2.1E1,4.1E1,6E0,7.1E1],"tree_param":{"num_deleted":"0","num_feature":"3","num_nodes":"57","size_leaf_vector":"1"}},{"base_weights":[-7.3022903E-3,-1.203021E0,1.441588E0,-1.8965738E0,-5.911238E-1,8.8800585E-1,2.3625362E0,-2.5690753E0,-1.4937093E0,-6.607768E-2,-9.59111E-1,1.2166148E0,-2.5424924E-1,2.1242163E0,3.79322E0,-3.9330525E0,-2.395087E0,-1.1851716E0,-1.8942703E0,2.4333455E-1,-8.0856717E-1,-1.163871E0,-5.4150856E-1,1.4749743E0,7.2627443E-1,-8.2911974E-1,-4.439819E-2,2.4099028E0,1.0881598E0,1.4770917E0,4.6906905E0,-4.121451E-1,-1.0245347E-1,-2.1573544E-1,-3.150702E-1,-1.9061302E-1,-6.567214E-2,-2.1664868E-1,-1.432668E-1,-1.4735534E-2,1.7386939E-1,-1.5752237E-1,3.310004E-3,-1.8315476E-1,-1.0578171E-1,-1.10366605E-1,-4.255561E-2,1.2578893E-1,2.858452E-1,-9.650629E-2,9.236781E-2,-1.3561934E-1,-1.6642665E-2,-1.2860683E-1,7.584696E-3,2.678561E-1,1.3448106E-1,1.4095128E-1,2.4765635E-2,2.6243558E-2,2.9298028E-1,4.8817834E-1,6.255074E-2],"categories":[],"categories_nodes":[],"categories_segments":[],"categories_sizes":[],"default_left":[0,0,0,0,0,0,0,0,0,0,0,0,0,0,0,0,0,0,0,0,0,0,0,0,0,0,0,0,0,0,0,0,0,0,0,0,0,0,0,0,0,0,0,0,0,0,0,0,0,0,0,0,0,0,0,0,0,0,0,0,0,0,0],"id":14,"left_children":[1,3,5,7,9,11,13,15,17,19,21,23,25,27,29,31,33,35,37,39,41,43,45,47,49,51,53,55,57,59,61,-1,-1,-1,-1,-1,-1,-1,-1,-1,-1,-1,-1,-1,-1,-1,-1,-1,-1,-1,-1,-1,-1,-1,-1,-1,-1,-1,-1,-1,-1,-1,-1],"loss_changes":[2.0269862E3,2.709084E2,2.6759705E2,7.7440674E1,6.601452E1,1.2492731E2,5.9452515E1,1.692212E1,2.1236725E1,3.2819168E1,1.655693E1,3.161325E1,9.010976E0,4.8287476E1,4.919513E1,1.8049927E0,1.1345825E1,4.0657196E1,7.0742493E0,5.9262608E1,2.7153467E1,7.551071E0,3.9628067E0,4.686017E1,3.127414E1,6.7600546E0,8.458613E0,3.4741394E1,1.0184757E1,1.5112017E1,1.1706146E1,0E0,0E0,0E0,0E0,0E0,0E0,0E0,0E0,0E0,0E0,0E0,0E0,0E0,0E0,0E0,0E0,0E0,0E0,0E0,0E0,0E0,0E0,0E0,0E0,0E0,0E0,0E0,0E0,0E0,0E0,0E0,0E0],"parents":[2147483647,0,0,1,1,2,2,3,3,4,4,5,5,6,6,7,7,8,8,9,9,10,10,11,11,12,12,13,13,14,14,15,15,16,16,17,17,18,18,19,19,20,20,21,21,22,22,23,23,24,24,25,25,26,26,27,27,28,28,29,29,30,30],"right_children":[2,4,6,8,10,12,14,16,18,20,22,24,26,28,30,32,34,36,38,40,42,44,46,48,50,52,54,56,58,60,62,-1,-1,-1,-1,-1,-1,-1,-1,-1,-1,-1,-1,-1,-1,-1,-1,-1,-1,-1,-1,-1,-1,-1,-1,-1,-1,-1,-1,-1,-1,-1,-1],"split_conditions":[9.4E0,5E0,1.39E1,1.7E0,5E-1,2E0,1.72E1,-3.9E0,1.5E0,3.7E0,7.8E0,3.2E0,1E1,3E-1,2.2E0,3E-1,3.3E0,2.4E0,8.1E0,3E0,7.2E0,2E0,2.1E0,3E0,3.3E0,4E0,2.1E0,3.6E0,8.1E0,1.78E1,1.3E1,-4.121451E-1,-1.0245347E-1,-2.1573544E-1,-3.150702E-1,-1.9061302E-1,-6.567214E-2,-2.1664868E-1,-1.432668E-1,-1.4735534E-2,1.7386939E-1,-1.5752237E-1,3.310004E-3,-1.8315476E-1,-1.0578171E-1,-1.10366605E-1,-4.255561E-2,1.2578893E-1,2.858452E-1,-9.650629E-2,9.236781E-2,-1.3561934E-1,-1.6642665E-2,-1.2860683E-1,7.584696E-3,2.678561E-1,1.3448106E-1,1.4095128E-1,2.4765635E-2,2.6243558E-2,2.9298028E-1,4.8817834E-1,6.255074E-2],"split_indices":[1,1,1,1,0,0,1,1,0,2,1,2,1,0,2,0,0,2,0,2,1,2,2,2,2,2,2,2,0,1,0,0,0,0,0,0,0,0,0,0,0,0,0,0,0,0,0,0,0,0,0,0,0,0,0,0,0,0,0,0,0,0,0],"split_type":[0,0,0,0,0,0,0,0,0,0,0,0,0,0,0,0,0,0,0,0,0,0,0,0,0,0,0,0,0,0,0,0,0,0,0,0,0,0,0,0,0,0,0,0,0,0,0,0,0,0,0,0,0,0,0,0,0,0,0,0,0,0,0],"sum_hessian":[1.168E3,6.4E2,5.28E2,2.99E2,3.41E2,3.31E2,1.97E2,1.1E2,1.89E2,1.41E2,2E2,2.57E2,7.4E1,1.71E2,2.6E1,1E1,1E2,1.09E2,8E1,1E2,4.1E1,1.33E2,6.7E1,1.67E2,9E1,1.9E1,5.5E1,1.33E2,3.8E1,8E0,1.8E1,9E0,1E0,7.9E1,2.1E1,4.5E1,6.4E1,4.8E1,3.2E1,8E1,2E1,2.1E1,2E1,1.6E1,1.17E2,1E1,5.7E1,1.46E2,2.1E1,9E0,8.1E1,1E1,9E0,4E0,5.1E1,1.05E2,2.8E1,2.7E1,1.1E1,5E0,3E0,1.7E1,1E0],"tree_param":{"num_deleted":"0","num_feature":"3","num_nodes":"63","size_leaf_vector":"1"}},{"base_weights":[-7.0223915E-3,-1.1668129E0,1.2096528E0,-2.2100825E0,-8.671947E-1,5.507866E-1,1.91188E0,-3.09578E0,-1.9967477E0,-4.0949452E-1,-1.1633338E0,1.0183876E0,-1.7330697E-1,1.7385348E0,3.4461186E0,-7.838841E-2,-3.1622152E0,-3.090344E0,-1.7915447E0,-2.8209022E-1,-1.9454976E0,-1.5370328E0,-8.7061125E-1,1.5754498E0,6.8205804E-1,5.146254E-2,-6.6068596E-1,1.9827375E0,9.6606916E-1,1.6351826E0,4.415188E0,-2.7477995E-1,-4.4437414E-1,-3.182698E-1,-8.525171E-2,-1.5916948E-1,-3.041199E-1,-1.1050037E-1,-4.0480397E-3,-2.5366387E-1,1.6651465E-2,-1.9647077E-1,-1.4190207E-1,-3.394599E-2,-9.309593E-2,1.0838997E-1,2.4109815E-1,-1.6717348E-3,1.0316657E-1,-3.228667E-3,1.6717064E-1,-3.8466882E-2,-9.989167E-2,1.6249298E-1,2.2719958E-1,1.1311775E-1,-2.8980851E-2,4.7217067E-2,2.936363E-1,4.6168587E-1,5.942316E-2],"categories":[],"categories_nodes":[],"categories_segments":[],"categories_sizes":[],"default_left":[0,0,0,0,0,0,0,0,0,0,0,0,0,0,0,0,0,0,0,0,0,0,0,0,0,0,0,0,0,0,0,0,0,0,0,0,0,0,0,0,0,0,0,0,0,0,0,0,0,0,0,0,0,0,0,0,0,0,0,0,0],"id":15,"left_children":[1,3,5,7,9,11,13,15,17,19,21,23,25,27,29,-1,31,33,35,37,39,41,43,45,47,49,51,53,55,57,59,-1,-1,-1,-1,-1,-1,-1,-1,-1,-1,-1,-1,-1,-1,-1,-1,-1,-1,-1,-1,-1,-1,-1,-1,-1,-1,-1,-1,-1,-1],"loss_changes":[1.6509736E3,1.8532037E2,2.631336E2,1.8948853E1,6.2822174E1,1.0039821E2,6.7411804E1,1.207367E0,1.914853E1,3.5654472E1,2.9619263E1,3.2649597E1,1.28511095E1,4.52442E1,4.016327E1,0E0,4.4403076E-3,5.934601E-1,1.8884949E1,3.4153E1,1.7901356E1,3.419983E0,4.8446503E0,2.4904022E1,2.786713E1,1.1045199E1,3.069975E0,1.5869385E1,1.3183884E1,1.5259703E1,1.0356262E1,0E0,0E0,0E0,0E0,0E0,0E0,0E0,0E0,0E0,0E0,0E0,0E0,0E0,0E0,0E0,0E0,0E0,0E0,0E0,0E0,0E0,0E0,0E0,0E0,0E0,0E0,0E0,0E0,0E0,0E0],"parents":[2147483647,0,0,1,1,2,2,3,3,4,4,5,5,6,6,7,7,8,8,9,9,10,10,11,11,12,12,13,13,14,14,16,16,17,17,18,18,19,19,20,20,21,21,22,22,23,23,24,24,25,25,26,26,27,27,28,28,29,29,30,30],"right_children":[2,4,6,8,10,12,14,16,18,20,22,24,26,28,30,-1,32,34,36,38,40,42,44,46,48,50,52,54,56,58,60,-1,-1,-1,-1,-1,-1,-1,-1,-1,-1,-1,-1,-1,-1,-1,-1,-1,-1,-1,-1,-1,-1,-1,-1,-1,-1,-1,-1,-1,-1],"split_conditions":[8.9E0,2.2E0,1.28E1,-2.2E0,3E-1,3E-1,1.72E1,1.3E0,1.4E0,5.4E0,5.6E0,2.6E0,4.1E0,3E-1,2.4E0,-7.838841E-2,3.8E0,1.8E0,5.1E0,3.9E0,6.6E0,2.3E0,8E-1,1.17E1,3E0,4E0,5.4E0,1.44E1,4.8E0,1.78E1,1.3E1,-2.7477995E-1,-4.4437414E-1,-3.182698E-1,-8.525171E-2,-1.5916948E-1,-3.041199E-1,-1.1050037E-1,-4.0480397E-3,-2.5366387E-1,1.6651465E-2,-1.9647077E-1,-1.4190207E-1,-3.394599E-2,-9.309593E-2,1.0838997E-1,2.4109815E-1,-1.6717348E-3,1.0316657E-1,-3.228667E-3,1.6717064E-1,-3.8466882E-2,-9.989167E-2,1.6249298E-1,2.2719958E-1,1.1311775E-1,-2.8980851E-2,4.7217067E-2,2.936363E-1,4.6168587E-1,5.942316E-2],"split_indices":[1,1,1,1,0,0,1,2,2,2,1,2,2,0,2,0,0,0,2,1,2,2,0,1,2,2,2,1,2,1,0,0,0,0,0,0,0,0,0,0,0,0,0,0,0,0,0,0,0,0,0,0,0,0,0,0,0,0,0,0,0],"split_type":[0,0,0,0,0,0,0,0,0,0,0,0,0,0,0,0,0,0,0,0,0,0,0,0,0,0,0,0,0,0,0,0,0,0,0,0,0,0,0,0,0,0,0,0,0,0,0,0,0,0,0,0,0,0,0,0,0,0,0,0,0],"sum_hessian":[1.168E3,5.98E2,5.7E2,1.32E2,4.66E2,2.95E2,2.75E2,2.3E1,1.09E2,1.84E2,2.82E2,1.79E2,1.16E2,2.49E2,2.6E1,1E0,2.2E1,1.5E1,9.4E1,1.71E2,1.3E1,1.22E2,1.6E2,6.6E1,1.13E2,8E1,3.6E1,1.88E2,6.1E1,1E1,1.6E1,1.9E1,3E0,1.4E1,1E0,8.3E1,1.1E1,3.8E1,1.33E2,1E1,3E0,2.3E1,9.9E1,1.7E1,1.43E2,4.3E1,2.3E1,3.8E1,7.5E1,7.7E1,3E0,2.1E1,1.5E1,8.7E1,1.01E2,5.4E1,7E0,6E0,4E0,1.5E1,1E0],"tree_param":{"num_deleted":"0","num_feature":"3","num_nodes":"61","size_leaf_vector":"1"}},{"base_weights":[-6.89244E-3,-9.825884E-1,1.1753912E0,-1.6323633E0,-5.4061896E-1,7.994298E-1,2.0940974E0,-2.334711E0,-1.3700893E0,-7.573909E-2,-8.235259E-1,1.0683126E0,-1.5117726E-1,1.9220332E0,3.665161E0,-4.2360154E-1,-2.184106E0,-1.0969548E0,-1.6773154E0,-2.2976954E-1,-2.8922366E-2,-1.012045E0,-3.835572E-1,1.3083127E0,5.896296E-1,-5.6673324E-1,1.154482E-1,1.9727234E0,-1.0503966E0,4.205968E0,1.2616515E-1,-2.0012616E-1,-3.6790085E-1,-1.5857856E-1,-8.033351E-2,-1.8513946E-1,-8.9748524E-2,1.6836281E-1,-8.987829E-3,-1.562611E-1,-9.259223E-2,-1.6050696E-2,-6.346882E-2,1.1175034E-1,2.4541807E-1,-9.72283E-2,7.54789E-2,-1.6591439E-1,-3.5884406E-2,-2.6858388E-2,5.409462E-2,2.1551938E-1,1.17890455E-1,-1.3054037E-1,-2.7019119E-2,4.5136604E-1,5.6451987E-2],"categories":[],"categories_nodes":[],"categories_segments":[],"categories_sizes":[],"default_left":[0,0,0,0,0,0,0,0,0,0,0,0,0,0,0,0,0,0,0,0,0,0,0,0,0,0,0,0,0,0,0,0,0,0,0,0,0,0,0,0,0,0,0,0,0,0,0,0,0,0,0,0,0,0,0,0,0],"id":16,"left_children":[1,3,5,7,9,11,13,15,17,19,21,23,25,27,29,-1,31,33,35,-1,37,39,41,43,45,47,49,51,53,55,-1,-1,-1,-1,-1,-1,-1,-1,-1,-1,-1,-1,-1,-1,-1,-1,-1,-1,-1,-1,-1,-1,-1,-1,-1,-1,-1],"loss_changes":[1.3496542E3,1.8320032E2,1.8104144E2,4.4510986E1,5.0308914E1,9.652342E1,3.431494E1,1.0505981E1,1.4187653E1,1.5121155E1,1.9352142E1,3.3004425E1,9.372443E0,2.3166382E1,1.289122E1,0E0,1.0677429E1,1.3653236E1,1.0284607E1,0E0,1.51834955E1,6.4242554E0,3.9872103E0,3.98927E1,2.6530308E1,6.898937E0,8.642343E0,1.7448364E1,2.4416494E-1,9.776871E0,0E0,0E0,0E0,0E0,0E0,0E0,0E0,0E0,0E0,0E0,0E0,0E0,0E0,0E0,0E0,0E0,0E0,0E0,0E0,0E0,0E0,0E0,0E0,0E0,0E0,0E0,0E0],"parents":[2147483647,0,0,1,1,2,2,3,3,4,4,5,5,6,6,7,7,8,8,9,9,10,10,11,11,12,12,13,13,14,14,16,16,17,17,18,18,20,20,21,21,22,22,23,23,24,24,25,25,26,26,27,27,28,28,29,29],"right_children":[2,4,6,8,10,12,14,16,18,20,22,24,26,28,30,-1,32,34,36,-1,38,40,42,44,46,48,50,52,54,56,-1,-1,-1,-1,-1,-1,-1,-1,-1,-1,-1,-1,-1,-1,-1,-1,-1,-1,-1,-1,-1,-1,-1,-1,-1,-1,-1],"split_conditions":[9.4E0,4.4E0,1.44E1,6E-1,3E-1,2E0,1.78E1,-4.9E0,5E-1,7E-1,7.8E0,3.2E0,1.06E1,4.8E0,3.5E0,-4.2360154E-1,5.3E0,2.1E0,9.9E0,-2.2976954E-1,1.2E0,2E0,5.3E0,3E0,3.3E0,3E0,3.5E0,3E-1,3E-1,8E-1,1.2616515E-1,-2.0012616E-1,-3.6790085E-1,-1.5857856E-1,-8.033351E-2,-1.8513946E-1,-8.9748524E-2,1.6836281E-1,-8.987829E-3,-1.562611E-1,-9.259223E-2,-1.6050696E-2,-6.346882E-2,1.1175034E-1,2.4541807E-1,-9.72283E-2,7.54789E-2,-1.6591439E-1,-3.5884406E-2,-2.6858388E-2,5.409462E-2,2.1551938E-1,1.17890455E-1,-1.3054037E-1,-2.7019119E-2,4.5136604E-1,5.6451987E-2],"split_indices":[1,1,1,1,0,0,1,1,0,2,1,2,1,2,2,0,0,2,0,0,2,2,0,2,2,0,2,0,0,0,0,0,0,0,0,0,0,0,0,0,0,0,0,0,0,0,0,0,0,0,0,0,0,0,0,0,0],"split_type":[0,0,0,0,0,0,0,0,0,0,0,0,0,0,0,0,0,0,0,0,0,0,0,0,0,0,0,0,0,0,0,0,0,0,0,0,0,0,0,0,0,0,0,0,0,0,0,0,0,0,0,0,0,0,0,0,0],"sum_hessian":[1.168E3,6.4E2,5.28E2,2.58E2,3.82E2,3.76E2,1.52E2,6.8E1,1.9E2,1.45E2,2.37E2,2.93E2,8.3E1,1.39E2,1.3E1,3E0,6.5E1,1.03E2,8.7E1,2E0,1.43E2,1.65E2,7.2E1,1.94E2,9.9E1,3.2E1,5.1E1,1.37E2,2E0,1E1,3E0,6E1,5E0,3.7E1,6.6E1,7E1,1.7E1,4E0,1.39E2,2E1,1.45E2,3.9E1,3.3E1,1.68E2,2.6E1,9E0,9E1,4E0,2.8E1,2.7E1,2.4E1,1.1E2,2.7E1,1E0,1E0,9E0,1E0],"tree_param":{"num_deleted":"0","num_feature":"3","num_nodes":"57","size_leaf_vector":"1"}},{"base_weights":[-7.0016813E-3,-7.0959777E-1,1.3352889E0,-1.3511314E0,-2.1014069E-1,1.112894E0,2.2304864E0,-1.926271E0,-1.062673E0,1.7958124E-1,-6.1351347E-1,1.3901322E0,3.877665E-1,2.2908807E0,-1.2401333E-1,-3.0938485E0,-1.780037E0,-1.4817619E0,-8.690494E-1,2.9008162E-1,-1.7691406E0,-8.745614E-1,-3.7914234E-1,-1.1151223E0,1.4274954E0,1.7037068E-2,8.198785E-1,-4.93063E-2,2.37063E0,-3.2560623E-1,-7.358549E-2,-1.6277206E-1,-2.6103094E-1,1.69554E-2,-1.5582322E-1,-4.292851E-2,-1.3089481E-1,-1.2884693E-2,5.1897544E-2,-2.0712669E-1,7.771235E-2,-6.750822E-2,-1.339663E-1,-2.6415441E-2,-8.226096E-2,-1.348018E-1,-2.0821763E-2,3.33441E-1,1.3618247E-1,-7.01282E-2,3.7569553E-2,1.5172871E-2,1.0820808E-1,1.9440798E-1,3.1630298E-1],"categories":[],"categories_nodes":[],"categories_segments":[],"categories_sizes":[],"default_left":[0,0,0,0,0,0,0,0,0,0,0,0,0,0,0,0,0,0,0,0,0,0,0,0,0,0,0,0,0,0,0,0,0,0,0,0,0,0,0,0,0,0,0,0,0,0,0,0,0,0,0,0,0,0,0],"id":17,"left_children":[1,3,5,7,9,11,13,15,17,19,21,23,25,27,-1,29,31,33,35,37,39,41,43,45,47,49,51,-1,53,-1,-1,-1,-1,-1,-1,-1,-1,-1,-1,-1,-1,-1,-1,-1,-1,-1,-1,-1,-1,-1,-1,-1,-1,-1,-1],"loss_changes":[1.1034176E3,2.4579752E2,7.755078E1,5.3696716E1,6.817916E1,6.459564E1,1.939981E1,1.3444885E1,1.7051147E1,4.8102127E1,1.2700211E1,2.349524E1,1.4563926E1,1.8486267E1,0E0,1.8115005E0,8.524048E0,9.103546E0,2.9810013E1,2.0203802E1,1.0841141E1,8.373428E0,5.5959473E0,5.641761E-1,2.438684E1,1.3145031E1,7.193817E0,0E0,1.9538666E1,0E0,0E0,0E0,0E0,0E0,0E0,0E0,0E0,0E0,0E0,0E0,0E0,0E0,0E0,0E0,0E0,0E0,0E0,0E0,0E0,0E0,0E0,0E0,0E0,0E0,0E0],"parents":[2147483647,0,0,1,1,2,2,3,3,4,4,5,5,6,6,7,7,8,8,9,9,10,10,11,11,12,12,13,13,15,15,16,16,17,17,18,18,19,19,20,20,21,21,22,22,23,23,24,24,25,25,26,26,28,28],"right_children":[2,4,6,8,10,12,14,16,18,20,22,24,26,28,-1,30,32,34,36,38,40,42,44,46,48,50,52,-1,54,-1,-1,-1,-1,-1,-1,-1,-1,-1,-1,-1,-1,-1,-1,-1,-1,-1,-1,-1,-1,-1,-1,-1,-1,-1,-1],"split_conditions":[1.11E1,5.6E0,1.56E1,1.7E0,8E-1,3E-1,4.8E0,-3.9E0,2.4E0,5.8E0,7.8E0,1.2E0,1.33E1,1.1E0,-1.2401333E-1,3E-1,4.9E0,8E-1,1.8E0,7.8E0,7.2E0,7.2E0,1.4E1,1.39E1,1.6E0,8E-1,2.3E0,-4.93063E-2,1.72E1,-3.2560623E-1,-7.358549E-2,-1.6277206E-1,-2.6103094E-1,1.69554E-2,-1.5582322E-1,-4.292851E-2,-1.3089481E-1,-1.2884693E-2,5.1897544E-2,-2.0712669E-1,7.771235E-2,-6.750822E-2,-1.339663E-1,-2.6415441E-2,-8.226096E-2,-1.348018E-1,-2.0821763E-2,3.33441E-1,1.3618247E-1,-7.01282E-2,3.7569553E-2,1.5172871E-2,1.0820808E-1,1.9440798E-1,3.1630298E-1],"split_indices":[1,1,1,1,0,0,2,1,2,2,1,2,1,2,0,0,2,2,0,1,2,1,0,1,2,0,2,0,1,0,0,0,0,0,0,0,0,0,0,0,0,0,0,0,0,0,0,0,0,0,0,0,0,0,0],"split_type":[0,0,0,0,0,0,0,0,0,0,0,0,0,0,0,0,0,0,0,0,0,0,0,0,0,0,0,0,0,0,0,0,0,0,0,0,0,0,0,0,0,0,0,0,0,0,0,0,0,0,0,0,0,0,0],"sum_hessian":[1.168E3,7.67E2,4.01E2,3.35E2,4.32E2,3.23E2,7.8E1,1.1E2,2.25E2,2.2E2,2.12E2,2.33E2,9E1,7.7E1,1E0,1E1,1E2,6.9E1,1.56E2,2.09E2,1.1E1,9.9E1,1.13E2,3E0,2.3E2,4.9E1,4.1E1,2E0,7.5E1,9E0,1E0,8.7E1,1.3E1,3E0,6.6E1,7.9E1,7.7E1,7.4E1,1.35E2,1E1,1E0,7.1E1,2.8E1,9.1E1,2.2E1,2E0,1E0,6E0,2.24E2,1.6E1,3.3E1,1.2E1,2.9E1,5.1E1,2.4E1],"tree_param":{"num_deleted":"0","num_feature":"3","num_nodes":"55","size_leaf_vector":"1"}},{"base_weights":[-6.980743E-3,-8.626803E-1,8.906918E-1,-1.6517817E0,-6.3609964E-1,3.9194617E-1,1.4223512E0,-3.6741096E-1,-1.5768502E0,-2.9407197E-1,-8.574389E-1,7.351837E-1,-1.3946156E-1,1.2898602E0,2.5964403E0,-2.3480015E0,-1.4319509E0,-1.8301089E-1,-1.6375314E0,-1.0537244E0,-5.29627E-1,1.2209667E0,4.4323072E-1,4.791056E-2,-5.458853E-1,1.4731674E0,7.10265E-1,1.017639E0,3.4652858E0,-2.408619E-1,-6.284423E-2,7.756955E-2,-1.4791417E-1,-5.7218224E-2,2.0379081E-2,-2.2882865E-1,-8.515167E-4,-7.836018E-2,-1.1576658E-1,-5.836567E-3,-7.101332E-2,8.131977E-2,1.9176696E-1,-2.0076593E-2,7.678707E-2,-2.9439437E-3,1.5442578E-1,-1.0522207E-1,-3.4555536E-2,-4.1287865E-2,1.495547E-1,8.545606E-2,-3.705504E-2,1.0820552E-2,2.087318E-1,3.6345983E-1,3.7814237E-2],"categories":[],"categories_nodes":[],"categories_segments":[],"categories_sizes":[],"default_left":[0,0,0,0,0,0,0,0,0,0,0,0,0,0,0,0,0,0,0,0,0,0,0,0,0,0,0,0,0,0,0,0,0,0,0,0,0,0,0,0,0,0,0,0,0,0,0,0,0,0,0,0,0,0,0,0,0],"id":18,"left_children":[1,3,5,7,9,11,13,-1,15,17,19,21,23,25,27,29,31,33,35,37,39,41,43,45,47,49,51,53,55,-1,-1,-1,-1,-1,-1,-1,-1,-1,-1,-1,-1,-1,-1,-1,-1,-1,-1,-1,-1,-1,-1,-1,-1,-1,-1,-1,-1],"loss_changes":[8.9872174E2,1.0604758E2,1.5085046E2,1.4360748E1,3.51017E1,5.409266E1,3.9584534E1,0E0,1.116391E1,2.7303436E1,1.7651474E1,2.4987465E1,8.935994E0,2.5514648E1,3.3510437E1,4.6679688E-1,1.2815582E1,2.6008137E1,1.4821781E1,4.034378E0,9.145632E0,1.7474838E1,2.3987808E1,9.420602E0,3.3894634E0,8.59494E0,9.985987E0,1.0474961E1,7.5113525E0,0E0,0E0,0E0,0E0,0E0,0E0,0E0,0E0,0E0,0E0,0E0,0E0,0E0,0E0,0E0,0E0,0E0,0E0,0E0,0E0,0E0,0E0,0E0,0E0,0E0,0E0,0E0,0E0],"parents":[2147483647,0,0,1,1,2,2,3,3,4,4,5,5,6,6,8,8,9,9,10,10,11,11,12,12,13,13,14,14,15,15,16,16,17,17,18,18,19,19,20,20,21,21,22,22,23,23,24,24,25,25,26,26,27,27,28,28],"right_children":[2,4,6,8,10,12,14,-1,16,18,20,22,24,26,28,30,32,34,36,38,40,42,44,46,48,50,52,54,56,-1,-1,-1,-1,-1,-1,-1,-1,-1,-1,-1,-1,-1,-1,-1,-1,-1,-1,-1,-1,-1,-1,-1,-1,-1,-1,-1,-1],"split_conditions":[8.9E0,2.2E0,1.28E1,-4.9E0,3E-1,3E-1,1.72E1,-3.6741096E-1,1.4E0,5.4E0,6.7E0,2.6E0,4.1E0,3E-1,2.4E0,1.8E0,1.5E0,2.6E0,6.5E0,1.5E0,7.2E0,1.17E1,3E0,4E0,3.3E0,1.2E0,4.8E0,1.78E1,1.3E1,-2.408619E-1,-6.284423E-2,7.756955E-2,-1.4791417E-1,-5.7218224E-2,2.0379081E-2,-2.2882865E-1,-8.515167E-4,-7.836018E-2,-1.1576658E-1,-5.836567E-3,-7.101332E-2,8.131977E-2,1.9176696E-1,-2.0076593E-2,7.678707E-2,-2.9439437E-3,1.5442578E-1,-1.0522207E-1,-3.4555536E-2,-4.1287865E-2,1.495547E-1,8.545606E-2,-3.705504E-2,1.0820552E-2,2.087318E-1,3.6345983E-1,3.7814237E-2],"split_indices":[1,1,1,1,0,0,1,0,2,2,1,2,2,0,2,0,2,2,2,0,1,1,2,2,0,2,2,1,0,0,0,0,0,0,0,0,0,0,0,0,0,0,0,0,0,0,0,0,0,0,0,0,0,0,0,0,0],"split_type":[0,0,0,0,0,0,0,0,0,0,0,0,0,0,0,0,0,0,0,0,0,0,0,0,0,0,0,0,0,0,0,0,0,0,0,0,0,0,0,0,0,0,0,0,0,0,0,0,0,0,0,0,0,0,0,0,0],"sum_hessian":[1.168E3,5.98E2,5.7E2,1.32E2,4.66E2,2.95E2,2.75E2,3E0,1.29E2,1.84E2,2.82E2,1.79E2,1.16E2,2.49E2,2.6E1,1.8E1,1.11E2,1.71E2,1.3E1,1.75E2,1.07E2,6.6E1,1.13E2,8E1,3.6E1,1.88E2,6.1E1,1E1,1.6E1,1.7E1,1E0,2E0,1.09E2,8.5E1,8.6E1,9E0,4E0,5.1E1,1.24E2,3E1,7.7E1,4.3E1,2.3E1,3.8E1,7.5E1,7.7E1,3E0,9E0,2.7E1,2E0,1.86E2,5.4E1,7E0,6E0,4E0,1.5E1,1E0],"tree_param":{"num_deleted":"0","num_feature":"3","num_nodes":"57","size_leaf_vector":"1"}},{"base_weights":[-6.419706E-3,-5.796726E-1,1.088766E0,-1.1085216E0,-1.679568E-1,7.9431146E-1,1.5627846E0,-1.583325E0,-8.704167E-1,1.23789966E-1,-5.417371E-1,1.0241756E0,2.4430609E-1,1.4298815E0,2.780188E0,-3.3985513E-1,-1.5014341E0,-7.8636277E-1,-1.7980196E0,2.0910294E-1,-1.5430197E0,-1.0408E0,-3.5606605E-1,-1.0422015E0,1.0660331E0,-4.9975154E-1,3.939639E-1,1.472998E0,-1.0301075E0,3.2994378E0,6.572046E-1,-1.341685E-1,-2.0334767E-1,-1.244007E-1,-5.519238E-2,-2.8347898E-1,-1.4016797E-1,-1.7040055E-1,2.4996078E-2,-1.8176018E-1,7.386923E-2,-6.660723E-2,-1.5883243E-1,-3.1382793E-3,-7.0935704E-2,-1.5063734E-1,-3.8535308E-2,3.215463E-1,9.829223E-2,-8.151682E-2,4.0958726E-4,7.5048074E-2,6.7803077E-3,1.23014785E-1,1.9987951E-1,-1.252904E-1,-2.9225731E-2,4.3319437E-1,1.7170258E-1,9.529305E-3,1.1714697E-1],"categories":[],"categories_nodes":[],"categories_segments":[],"categories_sizes":[],"default_left":[0,0,0,0,0,0,0,0,0,0,0,0,0,0,0,0,0,0,0,0,0,0,0,0,0,0,0,0,0,0,0,0,0,0,0,0,0,0,0,0,0,0,0,0,0,0,0,0,0,0,0,0,0,0,0,0,0,0,0,0,0],"id":19,"left_children":[1,3,5,7,9,11,13,15,17,19,21,23,25,27,29,-1,31,33,35,37,39,41,43,45,47,49,51,53,55,57,59,-1,-1,-1,-1,-1,-1,-1,-1,-1,-1,-1,-1,-1,-1,-1,-1,-1,-1,-1,-1,-1,-1,-1,-1,-1,-1,-1,-1,-1,-1],"loss_changes":[7.345508E2,1.6703467E2,5.486859E1,3.6607697E1,4.7285362E1,3.135643E1,2.0779541E1,1.1397522E1,1.6207031E1,3.5019573E1,1.7235092E1,1.6333832E1,8.548437E0,1.6366638E1,1.3264618E1,0E0,6.4509735E0,2.1736938E1,3.4229736E0,1.8638477E1,8.860855E0,9.405861E0,1.6036814E1,6.3907623E-1,2.7744308E1,2.0693228E0,7.27487E0,1.5162415E1,1.2700105E-1,1.05342865E1,1.044253E0,0E0,0E0,0E0,0E0,0E0,0E0,0E0,0E0,0E0,0E0,0E0,0E0,0E0,0E0,0E0,0E0,0E0,0E0,0E0,0E0,0E0,0E0,0E0,0E0,0E0,0E0,0E0,0E0,0E0,0E0],"parents":[2147483647,0,0,1,1,2,2,3,3,4,4,5,5,6,6,7,7,8,8,9,9,10,10,11,11,12,12,13,13,14,14,16,16,17,17,18,18,19,19,20,20,21,21,22,22,23,23,24,24,25,25,26,26,27,27,28,28,29,29,30,30],"right_children":[2,4,6,8,10,12,14,16,18,20,22,24,26,28,30,-1,32,34,36,38,40,42,44,46,48,50,52,54,56,58,60,-1,-1,-1,-1,-1,-1,-1,-1,-1,-1,-1,-1,-1,-1,-1,-1,-1,-1,-1,-1,-1,-1,-1,-1,-1,-1,-1,-1,-1,-1],"split_conditions":[1.11E1,5.6E0,1.44E1,1.7E0,1.3E0,3E-1,1.78E1,-4.9E0,6E0,5.8E0,3.3E0,1.2E0,1.17E1,4.8E0,3.5E0,-3.3985513E-1,3.3E0,2.4E0,8E-1,1E0,7.2E0,2.3E0,9.7E0,1.17E1,1.6E0,3.6E0,2.3E0,3.2E0,3E-1,1.83E1,1.83E1,-1.341685E-1,-2.0334767E-1,-1.244007E-1,-5.519238E-2,-2.8347898E-1,-1.4016797E-1,-1.7040055E-1,2.4996078E-2,-1.8176018E-1,7.386923E-2,-6.660723E-2,-1.5883243E-1,-3.1382793E-3,-7.0935704E-2,-1.5063734E-1,-3.8535308E-2,3.215463E-1,9.829223E-2,-8.151682E-2,4.0958726E-4,7.5048074E-2,6.7803077E-3,1.23014785E-1,1.9987951E-1,-1.252904E-1,-2.9225731E-2,4.3319437E-1,1.7170258E-1,9.529305E-3,1.1714697E-1],"split_indices":[1,1,1,1,0,0,1,1,2,2,0,2,1,2,2,0,0,2,0,2,2,0,0,1,2,0,0,2,0,1,1,0,0,0,0,0,0,0,0,0,0,0,0,0,0,0,0,0,0,0,0,0,0,0,0,0,0,0,0,0,0],"split_type":[0,0,0,0,0,0,0,0,0,0,0,0,0,0,0,0,0,0,0,0,0,0,0,0,0,0,0,0,0,0,0,0,0,0,0,0,0,0,0,0,0,0,0,0,0,0,0,0,0,0,0,0,0,0,0,0,0,0,0,0,0],"sum_hessian":[1.168E3,7.67E2,4.01E2,3.35E2,4.32E2,2.49E2,1.52E2,1.1E2,2.25E2,2.43E2,1.89E2,1.75E2,7.4E1,1.39E2,1.3E1,3E0,1.07E2,2.08E2,1.7E1,2.32E2,1.1E1,5E1,1.39E2,3E0,1.72E2,1.2E1,6.2E1,1.37E2,2E0,1E1,3E0,8.5E1,2.2E1,6.9E1,1.39E2,3E0,1.4E1,4E0,2.28E2,1E1,1E0,3.1E1,1.9E1,7.3E1,6.6E1,1E0,2E0,5E0,1.67E2,7E0,5E0,2.9E1,3.3E1,9.6E1,4.1E1,1E0,1E0,5E0,5E0,2E0,1E0],"tree_param":{"num_deleted":"0","num_feature":"3","num_nodes":"61","size_leaf_vector":"1"}},{"base_weights":[-6.3781366E-3,-7.092113E-1,7.309308E-1,-1.4310949E0,-5.4389775E-1,3.2449922E-1,1.1641657E0,-2.4336169E0,-1.3077401E0,-7.1708643E-1,-2.2624536E-1,6.015259E-1,-1.0446915E-1,1.0503436E0,2.1749568E0,-2.5722924E-1,-5.234313E-2,-1.1721742E0,-2.0664587E0,-5.2659935E-1,-9.820751E-1,1.1488386E-1,-4.3577695E-1,1.3160617E0,4.26113E-1,1.2412929E-3,-6.859456E-1,1.124898E0,8.4714085E-2,7.8252584E-1,2.9480028E0,-1.8054296E-1,-9.9512115E-2,-2.780555E-1,-6.509047E-2,-1.0805371E-1,-2.6715463E-2,-1.1920156E-1,-7.292055E-2,3.0198103E-1,2.511513E-3,-2.4889025E-3,-5.9349168E-2,7.29351E-2,2.929965E-1,4.565753E-2,-1.995459E-1,1.4381266E-2,-5.4194685E-2,-1.11447334E-1,-3.1193031E-2,1.2633406E-1,6.563951E-2,-9.876846E-2,5.382625E-2,-6.5100536E-4,1.730671E-1,4.4607326E-1,2.3052227E-1],"categories":[],"categories_nodes":[],"categories_segments":[],"categories_sizes":[],"default_left":[0,0,0,0,0,0,0,0,0,0,0,0,0,0,0,0,0,0,0,0,0,0,0,0,0,0,0,0,0,0,0,0,0,0,0,0,0,0,0,0,0,0,0,0,0,0,0,0,0,0,0,0,0,0,0,0,0,0,0],"id":20,"left_children":[1,3,5,7,9,11,13,15,17,19,21,23,25,27,29,-1,-1,31,33,35,37,39,41,43,45,47,49,51,53,55,57,-1,-1,-1,-1,-1,-1,-1,-1,-1,-1,-1,-1,-1,-1,-1,-1,-1,-1,-1,-1,-1,-1,-1,-1,-1,-1,-1,-1],"loss_changes":[6.0630023E2,7.070453E1,1.0016412E2,1.0544388E1,2.6739517E1,3.5238205E1,2.9469452E1,1.5674362E0,7.9662476E0,1.5433533E1,1.2487123E1,2.200019E1,7.1926236E0,1.7902649E1,2.6756271E1,0E0,0E0,8.069931E0,1.2341904E1,2.6442543E1,6.085251E0,1.7395853E1,6.983961E0,3.1004322E1,1.1681004E1,7.822246E0,2.5373287E0,1.4218445E1,9.772943E0,8.240593E0,6.2470093E0,0E0,0E0,0E0,0E0,0E0,0E0,0E0,0E0,0E0,0E0,0E0,0E0,0E0,0E0,0E0,0E0,0E0,0E0,0E0,0E0,0E0,0E0,0E0,0E0,0E0,0E0,0E0,0E0],"parents":[2147483647,0,0,1,1,2,2,3,3,4,4,5,5,6,6,7,7,8,8,9,9,10,10,11,11,12,12,13,13,14,14,17,17,18,18,19,19,20,20,21,21,22,22,23,23,24,24,25,25,26,26,27,27,28,28,29,29,30,30],"right_children":[2,4,6,8,10,12,14,16,18,20,22,24,26,28,30,-1,-1,32,34,36,38,40,42,44,46,48,50,52,54,56,58,-1,-1,-1,-1,-1,-1,-1,-1,-1,-1,-1,-1,-1,-1,-1,-1,-1,-1,-1,-1,-1,-1,-1,-1,-1,-1,-1,-1],"split_conditions":[8.9E0,1.7E0,1.28E1,-3.9E0,6.7E0,3E-1,1.72E1,3E-1,4.9E0,1.5E0,3E-1,2.1E0,5.2E0,8.1E0,2.4E0,-2.5722924E-1,-5.234313E-2,1.7E0,5.7E0,2.2E0,7.4E0,1.2E0,7.2E0,1.17E1,6.6E0,1.02E1,8.4E0,3.6E0,2.6E0,1.78E1,2.7E0,-1.8054296E-1,-9.9512115E-2,-2.780555E-1,-6.509047E-2,-1.0805371E-1,-2.6715463E-2,-1.1920156E-1,-7.292055E-2,3.0198103E-1,2.511513E-3,-2.4889025E-3,-5.9349168E-2,7.29351E-2,2.929965E-1,4.565753E-2,-1.995459E-1,1.4381266E-2,-5.4194685E-2,-1.11447334E-1,-3.1193031E-2,1.2633406E-1,6.563951E-2,-9.876846E-2,5.382625E-2,-6.5100536E-4,1.730671E-1,4.4607326E-1,2.3052227E-1],"split_indices":[1,1,1,1,1,0,1,0,2,0,0,2,2,0,2,0,0,2,2,2,0,2,1,1,2,0,0,2,2,1,2,0,0,0,0,0,0,0,0,0,0,0,0,0,0,0,0,0,0,0,0,0,0,0,0,0,0,0,0],"split_type":[0,0,0,0,0,0,0,0,0,0,0,0,0,0,0,0,0,0,0,0,0,0,0,0,0,0,0,0,0,0,0,0,0,0,0,0,0,0,0,0,0,0,0,0,0,0,0,0,0,0,0,0,0,0,0,0,0,0,0],"sum_hessian":[1.168E3,5.98E2,5.7E2,1.1E2,4.88E2,2.95E2,2.75E2,1E1,1E2,3.15E2,1.73E2,1.79E2,1.16E2,2.49E2,2.6E1,9E0,1E0,8.7E1,1.3E1,1.85E2,1.3E2,6.6E1,1.07E2,3.4E1,1.45E2,9.9E1,1.7E1,2.31E2,1.8E1,1E1,1.6E1,1.7E1,7E1,8E0,5E0,5.8E1,1.27E2,6.9E1,6.1E1,1E0,6.5E1,3E1,7.7E1,2.6E1,8E0,1.44E2,1E0,7.9E1,2E1,7E0,1E1,1.77E2,5.4E1,5E0,1.3E1,6E0,4E0,3E0,1.3E1],"tree_param":{"num_deleted":"0","num_feature":"3","num_nodes":"59","size_leaf_vector":"1"}},{"base_weights":[-5.732916E-3,-6.39988E-1,6.5963405E-1,-1.2963889E0,-4.8968026E-1,3.7683347E-1,1.1904814E0,-2.950738E-1,-1.2231131E0,-6.464122E-1,-2.0222645E-1,5.50816E-1,-1.7028612E-1,1.3734256E0,5.189623E-1,-1.0816911E0,-1.6987293E0,-5.777137E-1,-1.3323921E0,1.0793969E-1,-3.9277184E-1,8.0656934E-1,3.5041708E-1,-1.0461494E0,-9.615284E-2,1.1304848E0,2.869787E0,5.210136E-2,1.9148086E0,-1.6838178E-1,-9.5139705E-2,-2.104905E-1,-6.740366E-2,-9.912299E-2,-4.333716E-2,-2.1909939E-1,-9.4185844E-2,2.8688198E-1,2.2641213E-3,-4.6343405E-2,4.3600496E-2,6.1272047E-3,8.643641E-2,-5.167159E-2,5.953883E-2,-4.4511463E-2,-1.3856469E-1,-8.2133E-2,1.1488508E-3,1.0143516E-1,2.6436445E-1,2.994736E-1,1.8540287E-2,-6.443556E-3,1.9489098E-1,2.4077311E-1,4.502616E-2],"categories":[],"categories_nodes":[],"categories_segments":[],"categories_sizes":[],"default_left":[0,0,0,0,0,0,0,0,0,0,0,0,0,0,0,0,0,0,0,0,0,0,0,0,0,0,0,0,0,0,0,0,0,0,0,0,0,0,0,0,0,0,0,0,0,0,0,0,0,0,0,0,0,0,0,0,0],"id":21,"left_children":[1,3,5,7,9,11,13,-1,15,17,19,21,23,25,27,29,31,33,35,37,39,41,43,45,47,49,51,53,55,-1,-1,-1,-1,-1,-1,-1,-1,-1,-1,-1,-1,-1,-1,-1,-1,-1,-1,-1,-1,-1,-1,-1,-1,-1,-1,-1,-1],"loss_changes":[4.937546E2,5.8463806E1,8.5272156E1,9.846741E0,2.1900307E1,3.5694588E1,2.3611664E1,0E0,5.4268646E0,1.4121994E1,1.0325923E1,1.4273125E1,5.808096E0,5.3102448E1,2.8573547E1,5.1450195E0,8.153938E0,1.6820213E1,7.3251534E0,1.57134695E1,6.526884E0,5.288254E0,3.4507683E1,8.1157637E-1,6.644455E0,2.1041733E1,6.488388E0,7.6412177E0,6.85688E0,0E0,0E0,0E0,0E0,0E0,0E0,0E0,0E0,0E0,0E0,0E0,0E0,0E0,0E0,0E0,0E0,0E0,0E0,0E0,0E0,0E0,0E0,0E0,0E0,0E0,0E0,0E0,0E0],"parents":[2147483647,0,0,1,1,2,2,3,3,4,4,5,5,6,6,8,8,9,9,10,10,11,11,12,12,13,13,14,14,15,15,16,16,17,17,18,18,19,19,20,20,21,21,22,22,23,23,24,24,25,25,26,26,27,27,28,28],"right_children":[2,4,6,8,10,12,14,-1,16,18,20,22,24,26,28,30,32,34,36,38,40,42,44,46,48,50,52,54,56,-1,-1,-1,-1,-1,-1,-1,-1,-1,-1,-1,-1,-1,-1,-1,-1,-1,-1,-1,-1,-1,-1,-1,-1,-1,-1,-1,-1],"split_conditions":[8.9E0,1.7E0,1.39E1,-4.9E0,6.7E0,2E0,3.6E0,-2.950738E-1,3.3E0,6E0,3E-1,2.7E0,2.1E0,3.2E0,1.67E1,1.4E0,1.1E0,2.2E0,6.3E0,1.2E0,1.98E1,9.4E0,3E0,1.11E1,3E0,1.78E1,3E-1,5.9E0,1.78E1,-1.6838178E-1,-9.5139705E-2,-2.104905E-1,-6.740366E-2,-9.912299E-2,-4.333716E-2,-2.1909939E-1,-9.4185844E-2,2.8688198E-1,2.2641213E-3,-4.6343405E-2,4.3600496E-2,6.1272047E-3,8.643641E-2,-5.167159E-2,5.953883E-2,-4.4511463E-2,-1.3856469E-1,-8.2133E-2,1.1488508E-3,1.0143516E-1,2.6436445E-1,2.994736E-1,1.8540287E-2,-6.443556E-3,1.9489098E-1,2.4077311E-1,4.502616E-2],"split_indices":[1,1,1,1,1,0,2,0,0,2,0,2,2,2,1,2,1,2,2,2,0,1,2,1,0,1,0,2,1,0,0,0,0,0,0,0,0,0,0,0,0,0,0,0,0,0,0,0,0,0,0,0,0,0,0,0,0],"split_type":[0,0,0,0,0,0,0,0,0,0,0,0,0,0,0,0,0,0,0,0,0,0,0,0,0,0,0,0,0,0,0,0,0,0,0,0,0,0,0,0,0,0,0,0,0,0,0,0,0,0,0,0,0,0,0,0,0],"sum_hessian":[1.168E3,5.98E2,5.7E2,1.1E2,4.88E2,3.73E2,1.97E2,3E0,1.07E2,3.15E2,1.73E2,2.83E2,9E1,1.54E2,4.3E1,8.5E1,2.2E1,2.88E2,2.7E1,6.6E1,1.07E2,1.23E2,1.6E2,6E0,8.4E1,1.34E2,2E1,3.3E1,1E1,1.3E1,7.2E1,1.5E1,7E0,7.3E1,2.15E2,7E0,2E1,1E0,6.5E1,9.9E1,8E0,9E0,1.14E2,3.5E1,1.25E2,3E0,3E0,1E1,7.4E1,1.26E2,8E0,1.9E1,1E0,3.2E1,1E0,7E0,3E0],"tree_param":{"num_deleted":"0","num_feature":"3","num_nodes":"57","size_leaf_vector":"1"}},{"base_weights":[-5.169316E-3,-4.3191344E-1,8.101159E-1,-8.646992E-1,-1.5415728E-1,6.641913E-1,1.3983366E0,-1.4572296E0,-7.403642E-1,8.499717E-2,-3.9469698E-1,8.418183E-1,2.0013756E-1,1.4475424E0,-1.21985726E-1,-2.1662803E0,-1.1835146E0,-5.6397396E-1,-1.003707E0,1.6124718E-1,-1.3517737E0,-5.6014556E-1,-2.1562707E-1,8.0838543E-1,3.1466836E-1,-4.7441548E-1,3.0860656E-1,1.0804936E0,1.9988042E0,-1.1280023E-1,-2.3649633E-1,-8.72027E-2,-2.4828823E-1,-4.945807E-2,-1.9307517E-1,-1.0950756E-1,-3.1503215E-2,-1.8460613E-1,1.8752826E-2,4.4005807E-2,-1.7541459E-1,-4.2458907E-2,-9.755457E-2,-1.28610125E-2,-6.725725E-2,9.274865E-2,1.9520633E-2,-7.868755E-2,2.1267096E-3,4.0757086E-2,-3.4022454E-2,1.3306949E-1,-9.343977E-2,2.5790974E-1,1.2465713E-1],"categories":[],"categories_nodes":[],"categories_segments":[],"categories_sizes":[],"default_left":[0,0,0,0,0,0,0,0,0,0,0,0,0,0,0,0,0,0,0,0,0,0,0,0,0,0,0,0,0,0,0,0,0,0,0,0,0,0,0,0,0,0,0,0,0,0,0,0,0,0,0,0,0,0,0],"id":22,"left_children":[1,3,5,7,9,11,13,15,17,19,21,23,25,27,-1,29,31,33,35,37,39,41,43,45,-1,47,49,51,53,-1,-1,-1,-1,-1,-1,-1,-1,-1,-1,-1,-1,-1,-1,-1,-1,-1,-1,-1,-1,-1,-1,-1,-1,-1,-1],"loss_changes":[4.0706622E2,9.218715E1,3.357727E1,2.1022797E1,2.7013306E1,2.653833E1,1.1943375E1,7.3341446E0,1.1046707E1,2.6072668E1,6.811905E0,1.5487869E1,6.8047047E0,1.36228485E1,0E0,1.40686035E-2,1.3619595E1,1.34615555E1,5.8844223E0,1.2215889E1,9.423725E0,6.3993263E0,4.446369E0,1.6761963E1,0E0,2.0301874E0,5.211344E0,2.5945679E1,9.880432E0,0E0,0E0,0E0,0E0,0E0,0E0,0E0,0E0,0E0,0E0,0E0,0E0,0E0,0E0,0E0,0E0,0E0,0E0,0E0,0E0,0E0,0E0,0E0,0E0,0E0,0E0],"parents":[2147483647,0,0,1,1,2,2,3,3,4,4,5,5,6,6,7,7,8,8,9,9,10,10,11,11,12,12,13,13,15,15,16,16,17,17,18,18,19,19,20,20,21,21,22,22,23,23,25,25,26,26,27,27,28,28],"right_children":[2,4,6,8,10,12,14,16,18,20,22,24,26,28,-1,30,32,34,36,38,40,42,44,46,-1,48,50,52,54,-1,-1,-1,-1,-1,-1,-1,-1,-1,-1,-1,-1,-1,-1,-1,-1,-1,-1,-1,-1,-1,-1,-1,-1,-1,-1],"split_conditions":[1.11E1,5E0,1.56E1,-5E-1,8E-1,3E-1,4.8E0,1.7E0,1.5E0,5.8E0,7.8E0,6E0,1.17E1,3.1E0,-1.21985726E-1,-2.8E0,-6E-1,6E0,1.37E1,7E-1,6.1E0,7.2E0,1.68E1,3.7E0,3.1466836E-1,3.6E0,4.8E0,2.9E0,3.6E0,-1.1280023E-1,-2.3649633E-1,-8.72027E-2,-2.4828823E-1,-4.945807E-2,-1.9307517E-1,-1.0950756E-1,-3.1503215E-2,-1.8460613E-1,1.8752826E-2,4.4005807E-2,-1.7541459E-1,-4.2458907E-2,-9.755457E-2,-1.28610125E-2,-6.725725E-2,9.274865E-2,1.9520633E-2,-7.868755E-2,2.1267096E-3,4.0757086E-2,-3.4022454E-2,1.3306949E-1,-9.343977E-2,2.5790974E-1,1.2465713E-1],"split_indices":[1,1,1,1,0,0,2,2,0,2,1,2,1,2,0,1,1,2,0,2,1,1,0,2,0,0,2,2,2,0,0,0,0,0,0,0,0,0,0,0,0,0,0,0,0,0,0,0,0,0,0,0,0,0,0],"split_type":[0,0,0,0,0,0,0,0,0,0,0,0,0,0,0,0,0,0,0,0,0,0,0,0,0,0,0,0,0,0,0,0,0,0,0,0,0,0,0,0,0,0,0,0,0,0,0,0,0,0,0,0,0,0,0],"sum_hessian":[1.168E3,7.67E2,4.01E2,2.99E2,4.68E2,3.23E2,7.8E1,5E1,2.49E2,2.35E2,2.33E2,2.33E2,9E1,7.7E1,1E0,1.2E1,3.8E1,1.51E2,9.8E1,2.24E2,1.1E1,1.2E2,1.13E2,2.31E2,2E0,1.2E1,7.8E1,4.8E1,2.9E1,3E0,9E0,3.2E1,6E0,1.45E2,6E0,8.6E1,1.2E1,2E0,2.22E2,2E0,9E0,9.2E1,2.8E1,9.6E1,1.7E1,1.93E2,3.8E1,7E0,5E0,6.8E1,1E1,4.3E1,5E0,1.5E1,1.4E1],"tree_param":{"num_deleted":"0","num_feature":"3","num_nodes":"55","size_leaf_vector":"1"}},{"base_weights":[-5.446513E-3,-6.081698E-1,4.684587E-1,-1.0771412E0,-4.7813523E-1,1.4217892E-1,8.2670164E-1,-2.6640305E-1,-1.0083939E0,-9.882181E-1,-4.1002372E-1,3.418995E-1,-1.5128462E-1,7.4244356E-1,1.6885947E0,-9.0519017E-1,-1.5879111E0,-3.6409983E-1,-1.4370428E0,-2.527709E-1,-7.250482E-1,4.83295E-1,7.3998176E-2,-6.2075254E-2,-5.223432E-1,8.84656E-1,3.074695E-1,2.4203151E-1,2.2849355E0,-1.4026615E-1,-7.604619E-2,-2.127275E-1,-4.243196E-2,-7.395997E-2,2.1874439E-2,-2.7820486E-1,-1.00490294E-1,-3.24315E-3,-6.495171E-2,2.4571005E-1,-7.7283844E-2,2.5317801E-2,2.2920112E-1,-1.2625276E-1,5.4288693E-2,-1.2967922E-2,5.8273274E-2,-8.500122E-2,2.2744063E-2,1.3787107E-1,7.2658665E-2,1.0798404E-1,2.0767817E-2,-3.9396096E-2,1.1355124E-1,2.4712448E-1,4.675382E-2],"categories":[],"categories_nodes":[],"categories_segments":[],"categories_sizes":[],"default_left":[0,0,0,0,0,0,0,0,0,0,0,0,0,0,0,0,0,0,0,0,0,0,0,0,0,0,0,0,0,0,0,0,0,0,0,0,0,0,0,0,0,0,0,0,0,0,0,0,0,0,0,0,0,0,0,0,0],"id":23,"left_children":[1,3,5,7,9,11,13,-1,15,17,19,21,23,25,27,29,31,33,35,37,39,41,43,45,47,49,51,53,55,-1,-1,-1,-1,-1,-1,-1,-1,-1,-1,-1,-1,-1,-1,-1,-1,-1,-1,-1,-1,-1,-1,-1,-1,-1,-1,-1,-1],"loss_changes":[3.3419073E2,3.0890945E1,7.644371E1,9.423065E0,1.3665527E1,2.0213806E1,2.140422E1,0E0,5.021942E0,1.2642403E1,1.7601048E1,7.7296467E0,4.601841E0,1.7419586E1,2.273838E1,5.7011566E0,8.511345E0,4.7577996E0,1.2897533E1,2.1046871E1,1.9995945E1,5.51927E1,4.5806503E1,5.0450077E0,6.826713E0,1.5788666E1,5.3252068E0,5.561571E0,5.277954E0,0E0,0E0,0E0,0E0,0E0,0E0,0E0,0E0,0E0,0E0,0E0,0E0,0E0,0E0,0E0,0E0,0E0,0E0,0E0,0E0,0E0,0E0,0E0,0E0,0E0,0E0,0E0,0E0],"parents":[2147483647,0,0,1,1,2,2,3,3,4,4,5,5,6,6,8,8,9,9,10,10,11,11,12,12,13,13,14,14,15,15,16,16,17,17,18,18,19,19,20,20,21,21,22,22,23,23,24,24,25,25,26,26,27,27,28,28],"right_children":[2,4,6,8,10,12,14,-1,16,18,20,22,24,26,28,30,32,34,36,38,40,42,44,46,48,50,52,54,56,-1,-1,-1,-1,-1,-1,-1,-1,-1,-1,-1,-1,-1,-1,-1,-1,-1,-1,-1,-1,-1,-1,-1,-1,-1,-1,-1,-1],"split_conditions":[7.8E0,1.7E0,1.22E1,-4.9E0,1.6E0,5E-1,1.72E1,-2.6640305E-1,4.9E0,1.2E0,4.5E0,3.2E0,1.5E1,3E-1,2.2E0,1.7E0,5.7E0,1.1E0,1.3E0,2.3E0,2.2E0,3E0,3.5E0,1.17E1,3.05E1,2.3E0,1.8E0,1.78E1,8E-1,-1.4026615E-1,-7.604619E-2,-2.127275E-1,-4.243196E-2,-7.395997E-2,2.1874439E-2,-2.7820486E-1,-1.00490294E-1,-3.24315E-3,-6.495171E-2,2.4571005E-1,-7.7283844E-2,2.5317801E-2,2.2920112E-1,-1.2625276E-1,5.4288693E-2,-1.2967922E-2,5.8273274E-2,-8.500122E-2,2.2744063E-2,1.3787107E-1,7.2658665E-2,1.0798404E-1,2.0767817E-2,-3.9396096E-2,1.1355124E-1,2.4712448E-1,4.675382E-2],"split_indices":[1,1,1,1,2,0,1,0,2,2,2,2,0,0,2,2,2,2,2,0,1,2,2,1,0,2,2,1,0,0,0,0,0,0,0,0,0,0,0,0,0,0,0,0,0,0,0,0,0,0,0,0,0,0,0,0,0],"split_type":[0,0,0,0,0,0,0,0,0,0,0,0,0,0,0,0,0,0,0,0,0,0,0,0,0,0,0,0,0,0,0,0,0,0,0,0,0,0,0,0,0,0,0,0,0,0,0,0,0,0,0,0,0,0,0,0,0],"sum_hessian":[1.168E3,5.14E2,6.54E2,1.1E2,4.04E2,3.43E2,3.11E2,3E0,1.07E2,4.6E1,3.58E2,2.04E2,1.39E2,2.85E2,2.6E1,9.3E1,1.4E1,2E1,2.6E1,2.4E2,1.18E2,1.33E2,7.1E1,1.13E2,2.6E1,2.14E2,7.1E1,8E0,1.8E1,1.9E1,7.4E1,9E0,5E0,1.2E1,8E0,5E0,2.1E1,1.55E2,8.5E1,1E0,1.17E2,1.19E2,1.4E1,1.8E1,5.3E1,1.03E2,1E1,1.8E1,8E0,5E1,1.64E2,7E0,6.4E1,5E0,3E0,1.6E1,2E0],"tree_param":{"num_deleted":"0","num_feature":"3","num_nodes":"57","size_leaf_vector":"1"}},{"base_weights":[-5.069017E-3,-4.7673118E-1,4.897308E-1,-9.2953426E-1,-3.4675357E-1,2.7432376E-1,8.941374E-1,-1.8311555E0,-8.413443E-1,-1.3357839E-1,-4.848831E-1,4.053007E-1,-1.3745394E-1,1.0462221E0,3.3806336E-1,-1.9658612E-1,-2.4204945E-2,-1.7682195E0,-7.5265926E-1,-5.0527584E-2,-1.1443756E0,-6.117281E-1,-2.736831E-1,4.7982237E-1,-1.9655186E-1,-9.732339E-1,-6.700791E-2,8.5309637E-1,2.4687285E0,-4.4768896E-2,1.49063E0,-7.4730157E-3,-1.9480817E-1,-5.3022612E-2,-1.1835722E-1,-7.591153E-2,8.085868E-3,-1.6192292E-1,4.4756602E-2,-9.0055585E-2,-5.4376792E-2,1.0044553E-2,-4.1886654E-2,4.381806E-2,3.80391E-1,-6.620582E-2,3.751592E-2,-3.923588E-2,-1.3108006E-1,-7.444313E-2,3.3240968E-3,7.5587206E-2,2.162659E-1,2.5968453E-1,1.45371435E-2,2.8002525E-2,-6.6356026E-2,7.307541E-2,2.6377246E-1],"categories":[],"categories_nodes":[],"categories_segments":[],"categories_sizes":[],"default_left":[0,0,0,0,0,0,0,0,0,0,0,0,0,0,0,0,0,0,0,0,0,0,0,0,0,0,0,0,0,0,0,0,0,0,0,0,0,0,0,0,0,0,0,0,0,0,0,0,0,0,0,0,0,0,0,0,0,0,0],"id":24,"left_children":[1,3,5,7,9,11,13,15,17,19,21,23,25,27,29,-1,-1,31,33,35,37,39,41,43,45,47,49,51,53,55,57,-1,-1,-1,-1,-1,-1,-1,-1,-1,-1,-1,-1,-1,-1,-1,-1,-1,-1,-1,-1,-1,-1,-1,-1,-1,-1,-1,-1],"loss_changes":[2.730528E2,3.4931396E1,4.949568E1,9.034729E0,1.3686405E1,2.0226795E1,1.6391235E1,1.8788414E0,8.779724E0,1.5472469E1,7.414055E0,1.2832012E1,5.292629E0,4.047592E1,1.9481281E1,0E0,0E0,2.9003658E0,1.0299271E1,1.6074356E1,1.1307863E1,2.9649734E0,5.9083376E0,3.3353695E1,8.764702E0,8.58284E-1,5.7971745E0,1.5935646E1,4.9803925E0,7.0191264E0,7.660612E0,0E0,0E0,0E0,0E0,0E0,0E0,0E0,0E0,0E0,0E0,0E0,0E0,0E0,0E0,0E0,0E0,0E0,0E0,0E0,0E0,0E0,0E0,0E0,0E0,0E0,0E0,0E0,0E0],"parents":[2147483647,0,0,1,1,2,2,3,3,4,4,5,5,6,6,7,7,8,8,9,9,10,10,11,11,12,12,13,13,14,14,17,17,18,18,19,19,20,20,21,21,22,22,23,23,24,24,25,25,26,26,27,27,28,28,29,29,30,30],"right_children":[2,4,6,8,10,12,14,16,18,20,22,24,26,28,30,-1,-1,32,34,36,38,40,42,44,46,48,50,52,54,56,58,-1,-1,-1,-1,-1,-1,-1,-1,-1,-1,-1,-1,-1,-1,-1,-1,-1,-1,-1,-1,-1,-1,-1,-1,-1,-1,-1,-1],"split_conditions":[8.9E0,2.2E0,1.39E1,-3.9E0,3E-1,2E0,3.6E0,3E-1,1.3E0,5.4E0,6.7E0,4.3E0,2.1E0,3.3E0,1.67E1,-1.9658612E-1,-2.4204945E-2,-2.8E0,3E-1,1.6E0,6.6E0,2.3E0,7.2E0,4.2E0,1.11E1,1.11E1,3E0,1.78E1,3E-1,1.5E1,4.2E0,-7.4730157E-3,-1.9480817E-1,-5.3022612E-2,-1.1835722E-1,-7.591153E-2,8.085868E-3,-1.6192292E-1,4.4756602E-2,-9.0055585E-2,-5.4376792E-2,1.0044553E-2,-4.1886654E-2,4.381806E-2,3.80391E-1,-6.620582E-2,3.751592E-2,-3.923588E-2,-1.3108006E-1,-7.444313E-2,3.3240968E-3,7.5587206E-2,2.162659E-1,2.5968453E-1,1.45371435E-2,2.8002525E-2,-6.6356026E-2,7.307541E-2,2.6377246E-1],"split_indices":[1,1,1,1,0,0,2,0,2,2,1,2,2,2,1,0,0,1,0,2,2,2,1,2,1,1,0,1,0,1,2,0,0,0,0,0,0,0,0,0,0,0,0,0,0,0,0,0,0,0,0,0,0,0,0,0,0,0,0],"split_type":[0,0,0,0,0,0,0,0,0,0,0,0,0,0,0,0,0,0,0,0,0,0,0,0,0,0,0,0,0,0,0,0,0,0,0,0,0,0,0,0,0,0,0,0,0,0,0,0,0,0,0,0,0,0,0,0,0,0,0],"sum_hessian":[1.168E3,5.98E2,5.7E2,1.32E2,4.66E2,3.73E2,1.97E2,1E1,1.22E2,1.84E2,2.82E2,2.83E2,9E1,1.54E2,4.3E1,9E0,1E0,9E0,1.13E2,1.71E2,1.3E1,1.75E2,1.07E2,2.52E2,3.1E1,6E0,8.4E1,1.37E2,1.7E1,3.3E1,1E1,1E0,8E0,7.6E1,3.7E1,2.6E1,1.45E2,1E1,3E0,3.1E1,1.44E2,3E1,7.7E1,2.5E2,2E0,1.7E1,1.4E1,3E0,3E0,1E1,7.4E1,1.29E2,8E0,1.6E1,1E0,2.2E1,1.1E1,7E0,3E0],"tree_param":{"num_deleted":"0","num_feature":"3","num_nodes":"59","size_leaf_vector":"1"}},{"base_weights":[-4.5081186E-3,-4.9998736E-1,3.8507405E-1,-1.0278776E0,-4.173824E-1,7.63447E-2,6.473655E-1,-8.962662E-1,-2.2604194E0,-3.7254602E-1,-8.768875E-1,2.5495848E-1,-1.7178418E-1,4.960124E-1,9.6165276E-1,-2.3167887E-1,-7.884243E-1,-2.8282958E-1,-7.4977785E-1,-2.3585373E-1,-5.6921476E-1,-1.5342995E0,-5.278785E-1,1.382307E0,2.0703848E-1,-7.785079E-1,-1.24453954E-1,1.0617406E0,3.9796165E-1,1.4664884E-1,1.144109E0,-1.0350939E-1,-4.1655775E-2,-1.3629787E-1,2.3831178E-2,-6.277395E-2,-6.7178207E-3,-6.36022E-2,6.742919E-2,4.855192E-3,-2.0140103E-1,-1.873791E-1,-2.1233758E-2,2.1432526E-1,-1.5916835E-1,-2.7801007E-1,2.7734697E-2,1.7352438E-2,-9.192025E-2,-4.302518E-3,-5.50762E-2,1.3389562E-1,-8.693436E-2,4.4223953E-2,-2.9681895E-2,1.0649624E-1,-2.4796811E-1,1.3686231E-1,3.5733085E-2],"categories":[],"categories_nodes":[],"categories_segments":[],"categories_sizes":[],"default_left":[0,0,0,0,0,0,0,0,0,0,0,0,0,0,0,0,0,0,0,0,0,0,0,0,0,0,0,0,0,0,0,0,0,0,0,0,0,0,0,0,0,0,0,0,0,0,0,0,0,0,0,0,0,0,0,0,0,0,0],"id":25,"left_children":[1,3,5,7,9,11,13,15,17,19,21,23,25,27,29,-1,31,-1,33,35,37,39,41,43,45,47,49,51,53,55,57,-1,-1,-1,-1,-1,-1,-1,-1,-1,-1,-1,-1,-1,-1,-1,-1,-1,-1,-1,-1,-1,-1,-1,-1,-1,-1,-1,-1],"loss_changes":[2.2584444E2,2.202826E1,5.2990562E1,9.167E0,8.882652E0,1.3428207E1,1.6362213E1,7.977661E0,3.0265503E0,1.0860939E1,8.138344E0,9.221776E0,3.5500906E0,1.2945755E1,1.6784317E1,0E0,5.164242E0,0E0,2.1425056E0,1.6020504E1,1.4302425E1,9.968824E0,1.1068768E1,1.9252695E1,3.6474663E1,1.365016E0,4.107239E0,1.9900433E1,6.4992943E0,5.5700245E1,1.5938728E1,0E0,0E0,0E0,0E0,0E0,0E0,0E0,0E0,0E0,0E0,0E0,0E0,0E0,0E0,0E0,0E0,0E0,0E0,0E0,0E0,0E0,0E0,0E0,0E0,0E0,0E0,0E0,0E0],"parents":[2147483647,0,0,1,1,2,2,3,3,4,4,5,5,6,6,7,7,8,8,9,9,10,10,11,11,12,12,13,13,14,14,16,16,18,18,19,19,20,20,21,21,22,22,23,23,24,24,25,25,26,26,27,27,28,28,29,29,30,30],"right_children":[2,4,6,8,10,12,14,16,18,20,22,24,26,28,30,-1,32,-1,34,36,38,40,42,44,46,48,50,52,54,56,58,-1,-1,-1,-1,-1,-1,-1,-1,-1,-1,-1,-1,-1,-1,-1,-1,-1,-1,-1,-1,-1,-1,-1,-1,-1,-1,-1,-1],"split_conditions":[7.8E0,6E-1,1.17E1,5.3E0,6E0,5E-1,1.5E1,-4.9E0,-2.7E0,1.5E0,6.3E0,1.4E0,1E0,2.1E0,2.1E0,-2.3167887E-1,2.7E0,-2.8282958E-1,8.4E0,2.1E0,5.7E0,3.3E0,3.3E0,1E1,1.5E0,8.3E0,1.68E1,1.8E0,1.04E1,2E0,3.6E0,-1.0350939E-1,-4.1655775E-2,-1.3629787E-1,2.3831178E-2,-6.277395E-2,-6.7178207E-3,-6.36022E-2,6.742919E-2,4.855192E-3,-2.0140103E-1,-1.873791E-1,-2.1233758E-2,2.1432526E-1,-1.5916835E-1,-2.7801007E-1,2.7734697E-2,1.7352438E-2,-9.192025E-2,-4.302518E-3,-5.50762E-2,1.3389562E-1,-8.693436E-2,4.4223953E-2,-2.9681895E-2,1.0649624E-1,-2.4796811E-1,1.3686231E-1,3.5733085E-2],"split_indices":[1,1,1,0,2,0,1,1,1,0,2,2,0,2,2,0,2,0,0,2,2,1,1,1,2,1,0,0,0,2,2,0,0,0,0,0,0,0,0,0,0,0,0,0,0,0,0,0,0,0,0,0,0,0,0,0,0,0,0],"split_type":[0,0,0,0,0,0,0,0,0,0,0,0,0,0,0,0,0,0,0,0,0,0,0,0,0,0,0,0,0,0,0,0,0,0,0,0,0,0,0,0,0,0,0,0,0,0,0,0,0,0,0,0,0,0,0,0,0,0,0],"sum_hessian":[1.168E3,5.14E2,6.54E2,6.8E1,4.46E2,3.01E2,3.53E2,6.3E1,5E0,4.08E2,3.8E1,1.75E2,1.26E2,2.4E2,1.13E2,3E0,6E1,3E0,2E0,2.42E2,1.66E2,1.2E1,2.6E1,6E0,1.69E2,8E0,1.18E2,3.4E1,2.06E2,2.1E1,9.2E1,3.5E1,2.5E1,1E0,1E0,7.2E1,1.7E2,1.58E2,8E0,3E0,9E0,4E0,2.2E1,5E0,1E0,3E0,1.66E2,1E0,7E0,1E2,1.8E1,3E1,4E0,1.94E2,1.2E1,1.6E1,5E0,7.1E1,2.1E1],"tree_param":{"num_deleted":"0","num_feature":"3","num_nodes":"59","size_leaf_vector":"1"}},{"base_weights":[-5.3227465E-3,-2.9337132E-1,5.449922E-1,-5.996684E-1,-9.682016E-2,-1.0217056E0,5.753431E-1,-1.2183065E0,-5.365191E-1,-2.9373365E-2,-5.560929E-1,-1.3235544E-1,-3.8896847E-1,5.115782E-1,1.4985999E0,-9.3456596E-1,-2.6161736E-1,-1.1035699E0,-4.7262034E-1,1.0709034E-1,-2.2858158E-1,-7.3809993E-1,5.5729103E-1,-1.2671979E-1,-5.8785725E-2,6.467428E-1,1.2844884E-1,5.0394565E-1,1.9370285E0,-1.5615493E-1,-3.7518147E-2,-4.10888E-2,-1.4868598E-1,3.355331E-2,-5.2240532E-2,-1.5812267E-1,1.2757736E-2,-2.8421668E-2,1.08368E-1,-5.9658628E-2,-1.9490105E-1,-7.6869964E-3,6.461699E-2,-2.5401592E-2,6.3936235E-3,1.164036E-1,4.8029266E-2,-2.9671565E-2,3.0275343E-2,1.4425912E-1,-2.0580895E-2,3.453815E-1,1.3653019E-1],"categories":[],"categories_nodes":[],"categories_segments":[],"categories_sizes":[],"default_left":[0,0,0,0,0,0,0,0,0,0,0,0,0,0,0,0,0,0,0,0,0,0,0,0,0,0,0,0,0,0,0,0,0,0,0,0,0,0,0,0,0,0,0,0,0,0,0,0,0,0,0,0,0],"id":26,"left_children":[1,3,5,7,9,11,13,15,17,19,21,-1,23,25,27,29,-1,31,33,35,37,39,41,43,-1,45,47,49,51,-1,-1,-1,-1,-1,-1,-1,-1,-1,-1,-1,-1,-1,-1,-1,-1,-1,-1,-1,-1,-1,-1,-1,-1],"loss_changes":[1.8546675E2,4.617788E1,1.9703178E1,1.1066315E1,1.4511633E1,1.0131054E0,2.2487534E1,8.264065E0,9.406502E0,1.1170201E1,1.2569956E1,0E0,1.3414013E-1,1.9129364E1,9.925961E0,7.8315315E0,0E0,6.5575104E0,1.015329E1,8.641347E0,1.2500301E1,7.747986E0,5.569427E-1,8.905016E-2,0E0,2.3033287E1,7.352427E0,6.2927694E0,1.0026684E1,0E0,0E0,0E0,0E0,0E0,0E0,0E0,0E0,0E0,0E0,0E0,0E0,0E0,0E0,0E0,0E0,0E0,0E0,0E0,0E0,0E0,0E0,0E0,0E0],"parents":[2147483647,0,0,1,1,2,2,3,3,4,4,5,5,6,6,7,7,8,8,9,9,10,10,12,12,13,13,14,14,15,15,17,17,18,18,19,19,20,20,21,21,22,22,23,23,25,25,26,26,27,27,28,28],"right_children":[2,4,6,8,10,12,14,16,18,20,22,-1,24,26,28,30,-1,32,34,36,38,40,42,44,-1,46,48,50,52,-1,-1,-1,-1,-1,-1,-1,-1,-1,-1,-1,-1,-1,-1,-1,-1,-1,-1,-1,-1,-1,-1,-1,-1],"split_conditions":[1.11E1,5E0,1.2E0,-2.1E0,5.5E0,3E-1,1.72E1,3.8E0,1.4E0,1.3E0,7.3E0,-1.3235544E-1,5E-1,3E-1,2.4E0,-3.9E0,-2.6161736E-1,1.1E0,-6E-1,7E-1,5.2E0,6.8E0,6.1E0,1.22E1,-5.8785725E-2,2.3E0,8E-1,2E0,2.7E0,-1.5615493E-1,-3.7518147E-2,-4.10888E-2,-1.4868598E-1,3.355331E-2,-5.2240532E-2,-1.5812267E-1,1.2757736E-2,-2.8421668E-2,1.08368E-1,-5.9658628E-2,-1.9490105E-1,-7.6869964E-3,6.461699E-2,-2.5401592E-2,6.3936235E-3,1.164036E-1,4.8029266E-2,-2.9671565E-2,3.0275343E-2,1.4425912E-1,-2.0580895E-2,3.453815E-1,1.3653019E-1],"split_indices":[1,1,2,1,2,0,1,0,2,0,2,0,0,0,2,1,0,2,1,2,2,2,1,1,0,2,0,2,2,0,0,0,0,0,0,0,0,0,0,0,0,0,0,0,0,0,0,0,0,0,0,0,0],"split_type":[0,0,0,0,0,0,0,0,0,0,0,0,0,0,0,0,0,0,0,0,0,0,0,0,0,0,0,0,0,0,0,0,0,0,0,0,0,0,0,0,0,0,0,0,0,0,0,0,0,0,0,0,0],"sum_hessian":[1.168E3,7.67E2,4.01E2,2.99E2,4.68E2,7E0,3.94E2,2.6E1,2.73E2,4.09E2,5.9E1,4E0,3E0,3.7E2,2.4E1,2.3E1,3E0,2.6E1,2.47E2,2.43E2,1.66E2,5.1E1,8E0,2E0,1E0,2.73E2,9.7E1,8E0,1.6E1,1E1,1.3E1,1E1,1.6E1,1.4E1,2.33E2,2E0,2.41E2,1.6E2,6E0,4.7E1,4E0,1E0,7E0,1E0,1E0,6.5E1,2.08E2,2.8E1,6.9E1,3E0,5E0,3E0,1.3E1],"tree_param":{"num_deleted":"0","num_feature":"3","num_nodes":"53","size_leaf_vector":"1"}},{"base_weights":[-5.1038773E-3,-4.1437158E-1,3.1669456E-1,-9.6577215E-1,-3.5300428E-1,1.1617657E-1,5.916226E-1,-7.809257E-1,-2.0161033E0,-2.5964868E-1,-5.8409E-1,3.688547E-1,-3.2755908E-2,5.246957E-1,1.1894039E0,-1.5501243E0,-4.5424366E-1,-3.1272107E-1,-4.009701E-1,-5.373034E-1,-7.2321795E-2,-1.2758977E0,-4.5759663E-1,5.0474876E-1,-1.008006E0,-7.55647E-1,1.06974326E-1,5.7354724E-1,-9.942275E-2,1.8140464E-1,1.7716738E0,-6.729523E-2,-1.7459807E-1,-1.0857578E-1,4.803655E-2,3.347957E-2,-7.5782396E-2,8.413168E-2,-5.972601E-2,1.774331E-3,-7.335386E-2,-1.4925002E-1,-3.2759037E-2,-6.550159E-2,-1.1659901E-3,3.845498E-2,1.1406058E-1,-1.6725688E-1,-6.413802E-2,-2.1013896E-1,-4.9593806E-2,9.856563E-2,-7.0434916E-3,6.0127147E-2,-2.7788972E-2,-1.1783349E-1,3.7006978E-2,-3.127112E-2,8.368858E-2,3.1947795E-1,1.2385241E-1],"categories":[],"categories_nodes":[],"categories_segments":[],"categories_sizes":[],"default_left":[0,0,0,0,0,0,0,0,0,0,0,0,0,0,0,0,0,0,0,0,0,0,0,0,0,0,0,0,0,0,0,0,0,0,0,0,0,0,0,0,0,0,0,0,0,0,0,0,0,0,0,0,0,0,0,0,0,0,0,0,0],"id":27,"left_children":[1,3,5,7,9,11,13,15,17,19,21,23,25,27,29,31,33,-1,35,37,39,41,43,45,47,49,51,53,55,57,59,-1,-1,-1,-1,-1,-1,-1,-1,-1,-1,-1,-1,-1,-1,-1,-1,-1,-1,-1,-1,-1,-1,-1,-1,-1,-1,-1,-1,-1,-1],"loss_changes":[1.5409052E2,1.7085632E1,3.6040115E1,8.327221E0,9.879852E0,1.4312233E1,1.0418037E1,1.0603615E1,1.13081875E1,1.72812E1,1.1054859E1,2.6890902E1,2.4323172E1,7.679306E0,1.5525658E1,1.0584354E0,1.9998787E1,0E0,1.3039596E0,1.1578598E1,1.1923527E1,3.6191864E0,1.0028524E1,9.420773E0,2.0946426E0,1.2588392E1,3.1558456E1,5.6435394E0,1.00603485E1,3.8244236E0,8.94157E0,0E0,0E0,0E0,0E0,0E0,0E0,0E0,0E0,0E0,0E0,0E0,0E0,0E0,0E0,0E0,0E0,0E0,0E0,0E0,0E0,0E0,0E0,0E0,0E0,0E0,0E0,0E0,0E0,0E0,0E0],"parents":[2147483647,0,0,1,1,2,2,3,3,4,4,5,5,6,6,7,7,8,8,9,9,10,10,11,11,12,12,13,13,14,14,15,15,16,16,18,18,19,19,20,20,21,21,22,22,23,23,24,24,25,25,26,26,27,27,28,28,29,29,30,30],"right_children":[2,4,6,8,10,12,14,16,18,20,22,24,26,28,30,32,34,-1,36,38,40,42,44,46,48,50,52,54,56,58,60,-1,-1,-1,-1,-1,-1,-1,-1,-1,-1,-1,-1,-1,-1,-1,-1,-1,-1,-1,-1,-1,-1,-1,-1,-1,-1,-1,-1,-1,-1],"split_conditions":[7.8E0,-5E-1,1.28E1,-6E-1,4.5E0,2.7E0,1.72E1,1.7E0,2.2E0,3.9E0,4.7E0,5.3E0,3E0,8.1E0,2.4E0,-2.8E0,-2.1E0,-3.1272107E-1,2.3E0,0E0,9.1E0,9.9E0,8.4E0,2.6E0,8.3E0,9.4E0,3.2E0,4.8E0,2.6E0,1.78E1,2.7E0,-6.729523E-2,-1.7459807E-1,-1.0857578E-1,4.803655E-2,3.347957E-2,-7.5782396E-2,8.413168E-2,-5.972601E-2,1.774331E-3,-7.335386E-2,-1.4925002E-1,-3.2759037E-2,-6.550159E-2,-1.1659901E-3,3.845498E-2,1.1406058E-1,-1.6725688E-1,-6.413802E-2,-2.1013896E-1,-4.9593806E-2,9.856563E-2,-7.0434916E-3,6.0127147E-2,-2.7788972E-2,-1.1783349E-1,3.7006978E-2,-3.127112E-2,8.368858E-2,3.1947795E-1,1.2385241E-1],"split_indices":[1,1,1,1,2,2,1,2,2,1,2,0,2,0,2,1,1,0,2,1,0,0,0,2,1,1,2,2,2,1,2,0,0,0,0,0,0,0,0,0,0,0,0,0,0,0,0,0,0,0,0,0,0,0,0,0,0,0,0,0,0],"split_type":[0,0,0,0,0,0,0,0,0,0,0,0,0,0,0,0,0,0,0,0,0,0,0,0,0,0,0,0,0,0,0,0,0,0,0,0,0,0,0,0,0,0,0,0,0,0,0,0,0,0,0,0,0,0,0,0,0,0,0,0,0],"sum_hessian":[1.168E3,5.14E2,6.54E2,5E1,4.64E2,3.79E2,2.75E2,4.4E1,6E0,3.32E2,1.32E2,1.4E2,2.39E2,2.49E2,2.6E1,1.2E1,3.2E1,3E0,3E0,1.33E2,1.99E2,1.9E1,1.13E2,1.28E2,1.2E1,3.8E1,2.01E2,2.31E2,1.8E1,1E1,1.6E1,3E0,9E0,1.9E1,1.3E1,1E0,2E0,5E0,1.28E2,1.76E2,2.3E1,1.5E1,4E0,7.8E1,3.5E1,1.09E2,1.9E1,3E0,9E0,5E0,3.3E1,3.3E1,1.68E2,2.24E2,7E0,5E0,1.3E1,6E0,4E0,3E0,1.3E1],"tree_param":{"num_deleted":"0","num_feature":"3","num_nodes":"61","size_leaf_vector":"1"}},{"base_weights":[-5.237767E-3,-3.747857E-1,2.8533083E-1,-8.07149E-1,-3.0720663E-1,1.4242129E-1,6.1445826E-1,-6.9225734E-1,-1.8981345E0,-7.323106E-1,-2.6705745E-1,2.5717422E-1,-6.486247E-2,6.7750126E-1,-2.6249966E-1,-1.9444814E-1,-5.9879583E-1,-2.3220229E-1,-7.002383E-1,-1.72223E-1,-1.4140528E0,-1.0815193E-1,-4.2699072E-1,1.4389797E-1,4.1887814E-1,-6.1818844E-1,-2.4918E-2,8.1143427E-1,2.0217133E-1,-1.0801398E0,3.1176037E-1,-3.5273153E-2,-8.7620266E-2,-1.2359587E-1,1.8560125E-2,-1.1751758E-1,4.798932E-3,-2.325712E-1,-8.403855E-2,-2.5409598E-2,3.4324747E-2,-1.0534938E-1,-3.752826E-2,3.6980744E-2,-7.386361E-2,1.521279E-1,1.585337E-2,3.237187E-2,-8.6346984E-2,-1.2520409E-2,3.4659173E-2,6.310069E-2,2.1222153E-1,-1.37589695E-2,1.17218785E-1,3.388691E-2,-1.4317153E-1,9.030104E-2,-1.3436635E-2],"categories":[],"categories_nodes":[],"categories_segments":[],"categories_sizes":[],"default_left":[0,0,0,0,0,0,0,0,0,0,0,0,0,0,0,0,0,0,0,0,0,0,0,0,0,0,0,0,0,0,0,0,0,0,0,0,0,0,0,0,0,0,0,0,0,0,0,0,0,0,0,0,0,0,0,0,0,0,0],"id":28,"left_children":[1,3,5,7,9,11,13,15,17,19,21,23,25,27,29,-1,31,-1,33,35,37,39,41,43,45,47,49,51,53,55,57,-1,-1,-1,-1,-1,-1,-1,-1,-1,-1,-1,-1,-1,-1,-1,-1,-1,-1,-1,-1,-1,-1,-1,-1,-1,-1,-1,-1],"loss_changes":[1.2563301E2,1.4799675E1,3.07207E1,7.334812E0,7.4336357E0,1.0910861E1,1.1124481E1,6.325878E0,1.4206772E0,1.4266214E1,1.03736725E1,5.343302E0,3.609375E0,1.1613487E1,6.9102774E0,0E0,3.8547916E0,0E0,1.6530823E0,4.915372E0,6.9363174E0,1.3724184E1,6.2132797E0,3.5163395E1,3.44863E1,2.8208776E0,5.781012E0,3.2716995E1,1.400338E1,3.4784975E0,2.495286E0,0E0,0E0,0E0,0E0,0E0,0E0,0E0,0E0,0E0,0E0,0E0,0E0,0E0,0E0,0E0,0E0,0E0,0E0,0E0,0E0,0E0,0E0,0E0,0E0,0E0,0E0,0E0,0E0],"parents":[2147483647,0,0,1,1,2,2,3,3,4,4,5,5,6,6,7,7,8,8,9,9,10,10,11,11,12,12,13,13,14,14,16,16,18,18,19,19,20,20,21,21,22,22,23,23,24,24,25,25,26,26,27,27,28,28,29,29,30,30],"right_children":[2,4,6,8,10,12,14,16,18,20,22,24,26,28,30,-1,32,-1,34,36,38,40,42,44,46,48,50,52,54,56,58,-1,-1,-1,-1,-1,-1,-1,-1,-1,-1,-1,-1,-1,-1,-1,-1,-1,-1,-1,-1,-1,-1,-1,-1,-1,-1,-1,-1],"split_conditions":[7.8E0,6E-1,1.39E1,5.3E0,1.4E0,5E-1,8.1E0,-4.9E0,-2.7E0,1.2E0,3.5E0,3E0,8E-1,3.6E0,2.6E0,-1.9444814E-1,-1.1E0,-2.3220229E-1,8.4E0,2.2E0,1.3E0,6.1E0,3.8E0,2.7E0,3.2E0,1.06E1,1.17E1,3.3E0,1.67E1,2E0,1.3E1,-3.5273153E-2,-8.7620266E-2,-1.2359587E-1,1.8560125E-2,-1.1751758E-1,4.798932E-3,-2.325712E-1,-8.403855E-2,-2.5409598E-2,3.4324747E-2,-1.0534938E-1,-3.752826E-2,3.6980744E-2,-7.386361E-2,1.521279E-1,1.585337E-2,3.237187E-2,-8.6346984E-2,-1.2520409E-2,3.4659173E-2,6.310069E-2,2.1222153E-1,-1.37589695E-2,1.17218785E-1,3.388691E-2,-1.4317153E-1,9.030104E-2,-1.3436635E-2],"split_indices":[1,1,1,0,2,0,0,1,1,2,2,2,0,2,2,0,1,0,0,1,2,1,2,2,2,1,1,2,1,2,0,0,0,0,0,0,0,0,0,0,0,0,0,0,0,0,0,0,0,0,0,0,0,0,0,0,0,0,0],"split_type":[0,0,0,0,0,0,0,0,0,0,0,0,0,0,0,0,0,0,0,0,0,0,0,0,0,0,0,0,0,0,0,0,0,0,0,0,0,0,0,0,0,0,0,0,0,0,0,0,0,0,0,0,0,0,0,0,0,0,0],"sum_hessian":[1.168E3,5.14E2,6.54E2,6.8E1,4.46E2,4.57E2,1.97E2,6.3E1,5E0,3.7E1,4.09E2,2.94E2,1.63E2,1.84E2,1.3E1,3E0,6E1,3E0,2E0,2.1E1,1.6E1,2.06E2,2.03E2,1.74E2,1.2E2,1E1,1.53E2,1.43E2,4.1E1,5E0,8E0,3.3E1,2.7E1,1E0,1E0,3E0,1.8E1,5E0,1.1E1,1.56E2,5E1,1.4E1,1.89E2,1.39E2,3.5E1,2.2E1,9.8E1,2E0,8E0,1.21E2,3.2E1,1.27E2,1.6E1,3.1E1,1E1,1E0,4E0,3E0,5E0],"tree_param":{"num_deleted":"0","num_feature":"3","num_nodes":"59","size_leaf_vector":"1"}},{"base_weights":[-5.374672E-3,-2.751233E-1,3.2149535E-1,-6.3694024E-1,-1.9897114E-1,2.0310846E-1,6.111056E-1,-5.003193E-1,-1.0434527E0,-5.9717965E-1,-1.5263897E-1,2.2374849E-1,-1.3772595E0,6.389274E-1,-9.929593E-1,-8.0143785E-1,-2.1484868E-1,-1.2038E0,-9.716549E-2,-1.5678836E-1,-8.645746E-1,-2.961533E-3,-3.1746894E-1,1.9432855E-1,2.3501909E0,-2.2031842E-1,-9.224828E-2,4.8779526E-1,9.629688E-1,-1.1831217E-1,-3.0631734E-2,-5.4496E-2,-1.7912889E-1,3.4902953E-2,-6.403378E-2,-1.3734517E-1,-3.183634E-2,-7.943626E-2,2.7572442E-2,2.2462552E-2,-7.3267795E-2,-2.1319023E-1,-5.7255596E-2,-1.8524533E-2,4.7101863E-2,-2.6552543E-1,-2.743055E-2,2.4983456E-2,-3.1047774E-2,3.0759594E-1,-2.7644157E-2,-1.9002343E-2,5.1651E-3,3.8535804E-2,1.5376416E-1,1.8566291E-1,3.946737E-2],"categories":[],"categories_nodes":[],"categories_segments":[],"categories_sizes":[],"default_left":[0,0,0,0,0,0,0,0,0,0,0,0,0,0,0,0,0,0,0,0,0,0,0,0,0,0,0,0,0,0,0,0,0,0,0,0,0,0,0,0,0,0,0,0,0,0,0,0,0,0,0,0,0,0,0,0,0],"id":29,"left_children":[1,3,5,7,9,11,13,15,17,19,21,23,25,27,29,31,33,35,37,39,41,43,45,47,49,-1,51,53,55,-1,-1,-1,-1,-1,-1,-1,-1,-1,-1,-1,-1,-1,-1,-1,-1,-1,-1,-1,-1,-1,-1,-1,-1,-1,-1,-1,-1],"loss_changes":[1.031624E2,1.7534832E1,1.8013206E1,5.6426735E0,9.705727E0,1.2605461E1,7.4625015E0,7.1344547E0,3.9798603E0,6.341156E0,1.1767282E1,2.2878103E1,5.1033726E0,6.925205E0,2.930975E-2,9.432686E0,1.1020077E1,3.0177078E0,1.5189137E0,4.996928E0,1.1362202E1,2.1773376E1,2.2177502E1,1.0416869E1,1.0381962E1,0E0,5.2024215E-2,1.06995125E1,2.3136791E1,0E0,0E0,0E0,0E0,0E0,0E0,0E0,0E0,0E0,0E0,0E0,0E0,0E0,0E0,0E0,0E0,0E0,0E0,0E0,0E0,0E0,0E0,0E0,0E0,0E0,0E0,0E0,0E0],"parents":[2147483647,0,0,1,1,2,2,3,3,4,4,5,5,6,6,7,7,8,8,9,9,10,10,11,11,12,12,13,13,14,14,15,15,16,16,17,17,18,18,19,19,20,20,21,21,22,22,23,23,24,24,26,26,27,27,28,28],"right_children":[2,4,6,8,10,12,14,16,18,20,22,24,26,28,30,32,34,36,38,40,42,44,46,48,50,-1,52,54,56,-1,-1,-1,-1,-1,-1,-1,-1,-1,-1,-1,-1,-1,-1,-1,-1,-1,-1,-1,-1,-1,-1,-1,-1,-1,-1,-1,-1],"split_conditions":[9.4E0,1.7E0,1.44E1,4.3E0,1.6E0,6.8E0,4.8E0,-5E-1,1.1E0,1.2E0,3.7E0,6.5E0,1.06E1,3.2E0,3E-1,-1E0,2.3E0,5.7E0,3E-1,5E-1,1.3E0,3E0,3.8E0,8.1E0,1.32E1,-2.2031842E-1,1.7E1,